{"learner":{"attributes":{"best_iteration":"113","best_score":"0.8836910067076955"},"feature_names":["pred_pct","confidence","pred_conf_product","branch_agreement","wick_up_ratio","wick_down_ratio","body_ratio","atr_rank","bb_squeeze","chop_score","adx_value","net_edge_after_fee","recent_stop_streak","recent_win_streak","sweep_low","sweep_high","dist_to_swing_low","dist_to_swing_high"],"feature_types":[],"gradient_booster":{"model":{"cats":{"enc":[],"feature_segments":[],"sorted_idx":[]},"gbtree_model_param":{"num_parallel_tree":"1","num_trees":"164"},"iteration_indptr":[0,1,2,3,4,5,6,7,8,9,10,11,12,13,14,15,16,17,18,19,20,21,22,23,24,25,26,27,28,29,30,31,32,33,34,35,36,37,38,39,40,41,42,43,44,45,46,47,48,49,50,51,52,53,54,55,56,57,58,59,60,61,62,63,64,65,66,67,68,69,70,71,72,73,74,75,76,77,78,79,80,81,82,83,84,85,86,87,88,89,90,91,92,93,94,95,96,97,98,99,100,101,102,103,104,105,106,107,108,109,110,111,112,113,114,115,116,117,118,119,120,121,122,123,124,125,126,127,128,129,130,131,132,133,134,135,136,137,138,139,140,141,142,143,144,145,146,147,148,149,150,151,152,153,154,155,156,157,158,159,160,161,162,163,164],"tree_info":[0,0,0,0,0,0,0,0,0,0,0,0,0,0,0,0,0,0,0,0,0,0,0,0,0,0,0,0,0,0,0,0,0,0,0,0,0,0,0,0,0,0,0,0,0,0,0,0,0,0,0,0,0,0,0,0,0,0,0,0,0,0,0,0,0,0,0,0,0,0,0,0,0,0,0,0,0,0,0,0,0,0,0,0,0,0,0,0,0,0,0,0,0,0,0,0,0,0,0,0,0,0,0,0,0,0,0,0,0,0,0,0,0,0,0,0,0,0,0,0,0,0,0,0,0,0,0,0,0,0,0,0,0,0,0,0,0,0,0,0,0,0,0,0,0,0,0,0,0,0,0,0,0,0,0,0,0,0,0,0,0,0,0,0],"trees":[{"base_weights":[4.3069728E-4,-1.1753919E0,1.1741573E0,-8.5416687E-1,-1.4295528E0,6.177561E-1,1.2668037E0,-9.203715E-1,-1.043181E-1,4.0812835E-2,-1.4732106E0,4.7905773E-2,8.2795835E-1,7.7901316E-1,1.3938097E0,-6.803679E-1,-1.1206881E0,1.4895472E-1,-5.252813E-1,-1.3379319E-2,1.4998435E-2,-0E0,-1.5124074E0,-1.7743143E-1,3.5584816E-1,1.5212683E-2,8.656454E-1,1.2813659E0,6.1691666E-1,1.1725358E0,1.6032618E0,-7.791701E-1,-1.3672666E-1,-9.2456454E-1,-1.4113975E0,2.0616697E-2,-0E0,-0E0,-3.2494735E-2,-1.1920987E-1,2.9951274E-2,1.4819948E-1,-1.5378536E0,-4.6090874E-1,1.8018867E-1,2.9396102E-2,-0E0,1.66908E-2,9.055069E-1,6.9991805E-2,5.837171E-1,1.2183874E0,3.8774556E-1,1.0022751E0,6.297304E-2,7.434087E-2,2.792239E-2,-9.019045E-1,-4.1737592E-1,2.141668E-2,-2.819796E-1,-7.5462925E-1,-6.484029E-2,-7.342098E-1,-6.748573E-2,6.0037244E-3,-1.8882573E-2,5.957708E-3,-1.7285092E-2,-0E0,2.9030396E-2,-1.5723013E0,-9.180965E-1,-2.7731583E-2,-0E0,1.9382054E-2,-0E0,1.0305609E0,6.612436E-1,-0E0,3.421207E-2,6.6945545E-2,3.776401E-1,2.4313341E-1,8.284767E-1,1.2259007E0,7.94128E-1,-7.562304E-1,-5.3764675E-2,-3.3179286E-3,-5.7210255E-1,-0E0,-4.6799633E-1,-8.4202266E-1,-0E0,-0E0,-4.297807E-2,-1.6131059E0,-1.17344E0,-4.523959E-2,-1.386402E-3,4.1954398E-1,1.1081537E0,4.3932468E-4,3.303237E-2,-0E0,3.0596163E-2,4.408483E-2,5.0460976E-1,-0E0,4.1974466E-2,8.908928E-1,1.4621013E0,5.404204E-1,5.2223835E-2,-5.923923E-1,-4.5028064E-2,-1.123056E-1,-3.5591703E-2,2.1343812E-2,-9.951395E-3,-0E0,-2.7597796E-2,-9.0060964E-2,-9.059018E-1,-9.948042E-1,-1.6368881E0,-2.7803246E-2,-6.506248E-2,3.233199E-2,-0E0,3.390704E-2,5.8985382E-2,-1.114509E-1,2.722576E-1,-3.0035307E-3,2.8335389E-2,2.2362687E-1,9.779425E-1,7.0276655E-2,1.8602746E-2,1.5465444E-1,6.843273E-1,-3.3580862E-2,-1.2965747E-2,5.707471E-3,-1.4672852E-2,1.148734E-2,-1.9740595E-2,-4.755897E-2,-2.5210362E-2,-5.66416E-2,-1.9149743E-3,-5.8568195E-2,-7.687358E-2,1.9980833E-5,-1.9045215E-2,2.599076E-2,-1.6395621E-3,2.7405435E-2,-0E0,-0E0,4.7865495E-2,2.2952309E-2,-7.018002E-3,1.498425E-2,3.800569E-2],"categories":[],"categories_nodes":[],"categories_segments":[],"categories_sizes":[],"default_left":[0,0,0,0,0,0,0,0,0,0,0,0,0,0,0,0,0,0,0,0,0,0,0,0,0,0,0,0,0,0,0,0,0,0,0,0,0,0,0,0,0,0,0,0,0,0,0,0,0,0,0,0,0,0,0,0,0,0,0,0,0,0,0,0,0,0,0,0,0,0,0,0,0,0,0,0,0,0,0,0,0,0,0,0,0,0,0,0,0,0,0,0,0,0,0,0,0,0,0,0,0,0,0,0,0,0,0,0,0,0,0,0,0,0,0,0,0,0,0,0,0,0,0,0,0,0,0,0,0,0,0,0,0,0,0,0,0,0,0,0,0,0,0,0,0,0,0,0,0,0,0,0,0,0,0,0,0,0,0,0,0,0,0,0,0,0,0],"id":0,"left_children":[1,3,5,7,9,11,13,15,17,19,21,23,25,27,29,31,33,35,37,-1,-1,39,41,43,45,-1,47,49,51,53,55,57,59,61,63,-1,65,-1,-1,67,-1,69,71,73,75,-1,-1,-1,77,-1,79,81,83,85,-1,-1,-1,87,89,-1,91,93,-1,95,-1,-1,-1,-1,-1,-1,-1,97,99,-1,-1,-1,-1,101,103,-1,-1,-1,105,107,109,111,113,115,-1,-1,117,119,121,123,-1,-1,-1,125,127,-1,-1,129,131,-1,-1,-1,-1,133,135,-1,-1,137,139,141,-1,143,-1,145,-1,-1,-1,-1,-1,147,149,151,153,-1,-1,-1,-1,-1,-1,155,157,-1,-1,159,161,-1,-1,163,165,-1,-1,-1,-1,-1,-1,-1,-1,-1,-1,-1,-1,-1,-1,-1,-1,-1,-1,-1,-1,-1,-1,-1,-1],"loss_changes":[1.5283105E4,4.375454E2,2.749204E2,1.1707019E2,2.0410156E2,9.220239E1,2.8077344E2,9.787598E1,2.4146069E1,8.776035E0,1.791167E2,1.6649448E1,4.628601E0,6.997778E1,1.5578467E2,5.1512054E1,5.4727173E1,7.4466343E0,1.0793255E1,0E0,0E0,8.509143E0,1.3016553E2,1.4055504E1,9.5403595E0,0E0,3.9099731E0,2.6445343E1,9.658835E1,4.6228516E1,6.20459E0,3.1725769E1,1.44815855E1,4.7924805E1,3.9164429E0,0E0,5.4483624E0,0E0,0E0,5.229201E0,0E0,5.8017597E0,4.5818848E1,6.1096287E0,3.6928163E0,0E0,0E0,0E0,5.0042114E0,0E0,6.1040497E0,3.0253876E1,3.0401657E1,3.4828003E1,0E0,0E0,0E0,1.341333E1,9.572968E0,0E0,6.1937885E0,3.449002E1,0E0,4.351576E0,0E0,0E0,0E0,0E0,0E0,0E0,0E0,2.594336E1,4.647995E0,0E0,0E0,0E0,0E0,5.93869E0,3.3124008E0,0E0,0E0,0E0,6.804252E0,2.0108334E1,8.531464E0,2.26427E1,3.7083008E1,6.8408356E0,0E0,0E0,9.868576E0,6.2657003E0,5.1744156E0,1.924582E1,0E0,0E0,0E0,1.9189941E1,2.5418976E1,0E0,0E0,5.4598565E0,4.6154175E0,0E0,0E0,0E0,0E0,1.0062806E1,1.3817524E1,0E0,0E0,6.0588226E0,6.952942E0,1.3759445E1,0E0,6.1600647E0,0E0,3.7720428E0,0E0,0E0,0E0,0E0,0E0,6.6327295E0,1.1770386E1,1.7507416E1,7.3325195E0,0E0,0E0,0E0,0E0,0E0,0E0,6.78061E0,1.3090725E1,0E0,0E0,4.683288E0,7.124298E0,0E0,0E0,1.2328083E1,5.34449E0,0E0,0E0,0E0,0E0,0E0,0E0,0E0,0E0,0E0,0E0,0E0,0E0,0E0,0E0,0E0,0E0,0E0,0E0,0E0,0E0,0E0,0E0,0E0,0E0],"parents":[2147483647,0,0,1,1,2,2,3,3,4,4,5,5,6,6,7,7,8,8,9,9,10,10,11,11,12,12,13,13,14,14,15,15,16,16,17,17,18,18,21,21,22,22,23,23,24,24,26,26,27,27,28,28,29,29,30,30,31,31,32,32,33,33,34,34,36,36,39,39,41,41,42,42,43,43,44,44,48,48,50,50,51,51,52,52,53,53,57,57,58,58,60,60,61,61,63,63,71,71,72,72,77,77,78,78,82,82,83,83,84,84,85,85,86,86,87,87,90,90,91,91,92,92,93,93,97,97,98,98,101,101,102,102,107,107,108,108,111,111,112,112,113,113,115,115,117,117,123,123,124,124,125,125,126,126,133,133,134,134,137,137,138,138,141,141,142,142],"right_children":[2,4,6,8,10,12,14,16,18,20,22,24,26,28,30,32,34,36,38,-1,-1,40,42,44,46,-1,48,50,52,54,56,58,60,62,64,-1,66,-1,-1,68,-1,70,72,74,76,-1,-1,-1,78,-1,80,82,84,86,-1,-1,-1,88,90,-1,92,94,-1,96,-1,-1,-1,-1,-1,-1,-1,98,100,-1,-1,-1,-1,102,104,-1,-1,-1,106,108,110,112,114,116,-1,-1,118,120,122,124,-1,-1,-1,126,128,-1,-1,130,132,-1,-1,-1,-1,134,136,-1,-1,138,140,142,-1,144,-1,146,-1,-1,-1,-1,-1,148,150,152,154,-1,-1,-1,-1,-1,-1,156,158,-1,-1,160,162,-1,-1,164,166,-1,-1,-1,-1,-1,-1,-1,-1,-1,-1,-1,-1,-1,-1,-1,-1,-1,-1,-1,-1,-1,-1,-1,-1],"split_conditions":[1E0,4E0,2E0,4.264965E0,-3.9011705E-1,1.056297E0,2E0,2E0,4.6810036E1,3.3514957E0,-4.0716657E-1,1.2791882E0,1.0878492E1,2.8416985E-1,3.5097E1,2.839601E0,2.6086956E-1,1.0869565E-1,6.666667E-2,-1.3379319E-2,1.4998435E-2,7.754484E1,1E0,7.5308645E-1,1E2,1.5212683E-2,2.3255814E-2,5.2068737E1,2.1869358E-1,2.1568628E-1,7.733952E0,1.8331264E0,-1.5872565E-1,4.2896217E-1,2E0,2.0616697E-2,2.987013E-1,-0E0,-3.2494735E-2,1.0344828E-1,2.9951274E-2,1.0800062E0,3.153155E0,4.0816328E-1,6.8020934E-1,2.9396102E-2,-0E0,1.66908E-2,1E2,6.9991805E-2,5.7677142E-2,6.9135803E-1,3.5311005E1,-3.3505752E0,6.297304E-2,7.434087E-2,2.792239E-2,3.0379745E-1,1.2765957E-1,2.141668E-2,1.9148937E-1,3.4814239E0,-6.484029E-2,1E-1,-6.748573E-2,6.0037244E-3,-1.8882573E-2,5.957708E-3,-1.7285092E-2,-0E0,2.9030396E-2,2.4971461E0,6.546109E0,-2.7731583E-2,-0E0,1.9382054E-2,-0E0,2E0,7.4446243E-1,-0E0,3.421207E-2,6.6945545E-2,1.0752688E-1,2.8528312E-1,3.125E-2,1.875E-1,1.8076445E0,2.923077E-1,-5.3764675E-2,-3.3179286E-3,-1.0909251E1,2.3214285E1,3.9677612E1,2E0,-0E0,-0E0,-4.297807E-2,2E0,7.192868E-2,-4.523959E-2,-1.386402E-3,4.9426807E1,1.7347269E0,4.3932468E-4,3.303237E-2,-0E0,3.0596163E-2,2.6865673E-1,1.724138E-2,-0E0,4.1974466E-2,3E0,1.9368348E0,5.087099E1,5.2223835E-2,1.3862009E0,-4.5028064E-2,4.4251835E1,-3.5591703E-2,2.1343812E-2,-9.951395E-3,-0E0,-2.7597796E-2,8.928572E-2,1.5854095E0,8.0227137E-1,-5.3729657E-2,-2.7803246E-2,-6.506248E-2,3.233199E-2,-0E0,3.390704E-2,5.8985382E-2,4.379562E1,1E0,-3.0035307E-3,2.8335389E-2,2.930585E-1,8.413817E-1,7.0276655E-2,1.8602746E-2,5.1200235E-1,5.925926E-1,-3.3580862E-2,-1.2965747E-2,5.707471E-3,-1.4672852E-2,1.148734E-2,-1.9740595E-2,-4.755897E-2,-2.5210362E-2,-5.66416E-2,-1.9149743E-3,-5.8568195E-2,-7.687358E-2,1.9980833E-5,-1.9045215E-2,2.599076E-2,-1.6395621E-3,2.7405435E-2,-0E0,-0E0,4.7865495E-2,2.2952309E-2,-7.018002E-3,1.498425E-2,3.800569E-2],"split_indices":[13,12,3,16,17,16,13,12,9,16,16,17,11,17,10,17,4,5,4,0,0,11,3,8,1,0,5,9,16,4,17,16,16,5,3,0,4,0,0,5,0,16,16,5,16,0,0,0,1,0,4,8,11,2,0,0,0,4,4,0,4,17,0,5,0,0,0,0,0,0,0,17,16,0,0,0,0,13,17,0,0,0,4,5,5,5,17,5,0,0,2,10,9,3,0,0,0,3,16,0,0,9,16,0,0,0,0,4,4,0,0,13,17,9,0,17,0,9,0,0,0,0,0,5,16,17,17,0,0,0,0,0,0,10,15,0,0,17,16,0,0,16,8,0,0,0,0,0,0,0,0,0,0,0,0,0,0,0,0,0,0,0,0,0,0,0,0],"split_type":[0,0,0,0,0,0,0,0,0,0,0,0,0,0,0,0,0,0,0,0,0,0,0,0,0,0,0,0,0,0,0,0,0,0,0,0,0,0,0,0,0,0,0,0,0,0,0,0,0,0,0,0,0,0,0,0,0,0,0,0,0,0,0,0,0,0,0,0,0,0,0,0,0,0,0,0,0,0,0,0,0,0,0,0,0,0,0,0,0,0,0,0,0,0,0,0,0,0,0,0,0,0,0,0,0,0,0,0,0,0,0,0,0,0,0,0,0,0,0,0,0,0,0,0,0,0,0,0,0,0,0,0,0,0,0,0,0,0,0,0,0,0,0,0,0,0,0,0,0,0,0,0,0,0,0,0,0,0,0,0,0,0,0,0,0,0,0],"sum_hessian":[1.1068163E4,5.5272026E3,5.54096E3,2.4549954E3,3.0722075E3,8.011238E2,4.7398364E3,2.2496365E3,2.0535881E2,8.558427E1,2.9866233E3,2.2268196E2,5.784418E2,9.9085095E2,3.7489854E3,1.039585E3,1.2100515E3,1.2262755E2,8.273127E1,3.213516E1,5.3449112E1,7.464399E1,2.9119792E3,1.2075158E2,1.01930374E2,5.1210594E1,5.272312E2,2.2998141E2,7.608695E2,1.8429279E3,1.9060575E3,8.7154926E2,1.6803568E2,7.39174E2,4.7087756E2,4.821289E1,7.441466E1,1.6415016E1,6.631625E1,5.9501938E1,1.5142047E1,4.1034096E1,2.870945E3,7.399964E1,4.6751938E1,5.3160065E1,4.8770313E1,4.9217487E1,4.780137E2,1.6414026E2,6.5841156E1,2.0098177E2,5.5988776E2,1.0037469E3,8.3918097E2,1.8807251E3,2.5332329E1,6.381422E2,2.3340704E2,2.5341516E1,1.4269415E2,5.5915137E2,1.8002261E2,4.3637455E1,4.2724008E2,5.0240456E1,2.4174204E1,2.1880564E1,3.7621376E1,2.6885157E1,1.4148938E1,2.7085857E3,1.6235953E2,5.9073143E1,1.49265E1,2.7084625E1,1.9667313E1,2.9764148E2,1.8037224E2,1.5178797E1,5.066236E1,1.5126888E2,4.971289E1,4.3273758E2,1.2715016E2,4.6649268E2,5.3725415E2,4.3002576E2,2.0811642E2,8.2641685E1,1.5076537E2,6.44583E1,7.823586E1,4.971816E2,6.1969784E1,1.2697172E1,3.094028E1,2.438834E3,2.697516E2,1.4642155E2,1.5937984E1,4.224964E1,2.5539183E2,2.0892048E1,1.594802E2,2.0160421E1,2.955247E1,2.575189E2,1.752187E2,1.2192578E1,1.1495758E2,2.065989E2,2.5989377E2,3.1935507E2,2.1789908E2,2.6490015E2,1.6512561E2,5.4024906E1,9.6740456E1,1.4901235E1,4.9557064E1,1.716961E1,6.106625E1,4.5061657E1,4.5211993E2,1.020295E2,2.3368044E3,8.822897E1,1.8152261E2,2.4332329E1,1.7917313E1,9.388903E1,1.615028E2,1.4213904E2,1.15379845E2,2.191272E1,1.5330598E2,3.1077736E1,1.7552118E2,2.400178E2,1.9875969E1,9.7003876E1,2.2235121E2,1.7126077E2,9.363939E1,1.5412719E1,3.8612186E1,1.6153532E1,2.8908125E1,3.2104715E2,1.3107278E2,7.738056E1,2.4648937E1,2.0567155E2,2.131133E3,9.479981E1,4.733922E1,6.559575E1,4.9784096E1,1.5144344E1,1.5933391E1,1.3678797E1,1.6184238E2,5.193533E1,4.5068546E1,7.433656E1,1.4801465E2],"tree_param":{"num_deleted":"0","num_feature":"18","num_nodes":"167","size_leaf_vector":"1"}},{"base_weights":[-0E0,1.1211305E0,-1.1260866E0,5.909553E-1,1.2094572E0,-8.206205E-1,-1.368643E0,4.6075337E-2,7.91778E-1,7.4133956E-1,1.3318062E0,-1.1513672E0,-5.575061E-1,4.181417E-2,-1.4108517E0,3.2468298E-1,-3.3627027E-1,4.1908376E-2,5.961002E-1,1.0231338E0,4.7169676E-1,1.1216273E0,1.5311434E0,-6.5649212E-3,-1.2004476E0,-6.700033E-1,-2.9355014E-2,-1.2429086E-2,1.40752895E-2,1.672518E-2,-1.448747E0,6.7397773E-1,-0E0,-5.7909817E-1,-0E0,-0E0,6.758356E-1,6.585264E-2,8.659762E-1,1.152655E0,3.028691E-1,1.3133576E0,8.4992796E-1,1.5901676E0,5.491919E-2,-9.481412E-1,-1.3923439E0,-8.0694574E-1,-1.5703034E-1,-2.5120774E-1,7.5485446E-3,1.8964013E-2,-2.1903065E-1,1.2691985E-1,-1.4731807E0,3.9434068E-2,2.1054332E-4,-3.7658352E-1,1.5587631E-2,-3.586118E-2,-0E0,2.2381267E-2,-1.0199227E-2,2.884408E-1,8.4250796E-1,6.817891E-2,6.2047666E-1,6.8797165E-4,5.810274E-2,1.0496808E0,1.19426645E-1,6.9669604E-2,5.4070223E-2,7.2707576E-1,5.0349224E-2,7.371149E-2,2.6342075E-2,-1.0422872E0,-3.3686748E-1,-1.4216675E0,-8.243605E-3,-1.6489697E-1,-8.777361E-1,-2.8797203E-1,2.5909185E-1,-2.0109925E-2,-0E0,-2.1958765E-2,8.4281666E-4,-0E0,2.699759E-2,-1.5058575E0,-8.787101E-1,-0E0,-3.082793E-2,2.1604845E-2,-0E0,7.402863E-4,4.203687E-2,7.611781E-1,2.0348561E-1,5.7499606E-2,3.2599622E-3,1.8857463E-1,-2.0896515E-1,6.037131E-1,4.9122546E-2,-5.4416057E-2,-6.707806E-1,-2.1634474E-2,-0E0,-1.6918408E-2,-6.689951E-2,2.2533853E-3,-2.4751095E-2,-6.722636E-1,-1.0321358E0,-1.7841292E-3,-4.842748E-1,-0E0,4.7306216E-1,-7.635456E-2,-1.3753765E0,-5.078525E-2,-4.3802524E-1,-1.0630059E-2,1.9679481E-2,3.456678E-1,9.9889976E-1,3.170954E-2,-0E0,-3.2822567E-3,2.4636602E-1,-2.2941194E-2,4.1378988E-4,3.31379E-2,3.5774538E-1,-3.7233606E-3,-3.5921916E-2,-7.039821E-1,-0E0,-1.883614E-2,-1.0797822E0,-0E0,-6.062743E-1,-0E0,4.0027793E-2,-1.4349139E0,-7.3369557E-1,-2.7814552E-2,-0E0,-0E0,2.1159118E-2,3.1050502E-3,5.11981E-2,1.0172979E-2,-1.0467566E-2,1.4366338E-2,-0E0,3.0222237E-3,2.7845226E-2,-3.6404528E-2,-1.4722207E-2,-9.802332E-3,-5.113448E-2,-0E0,-3.2227233E-2,-3.6864888E-2,-6.729666E-2,-1.2208656E-2,-4.5717884E-2],"categories":[],"categories_nodes":[],"categories_segments":[],"categories_sizes":[],"default_left":[0,0,0,0,0,0,0,0,0,0,0,0,0,0,0,0,0,0,0,0,0,0,0,0,0,0,0,0,0,0,0,0,0,0,0,0,0,0,0,0,0,0,0,0,0,0,0,0,0,0,0,0,0,0,0,0,0,0,0,0,0,0,0,0,0,0,0,0,0,0,0,0,0,0,0,0,0,0,0,0,0,0,0,0,0,0,0,0,0,0,0,0,0,0,0,0,0,0,0,0,0,0,0,0,0,0,0,0,0,0,0,0,0,0,0,0,0,0,0,0,0,0,0,0,0,0,0,0,0,0,0,0,0,0,0,0,0,0,0,0,0,0,0,0,0,0,0,0,0,0,0,0,0,0,0,0,0,0,0,0,0,0,0,0,0,0,0,0,0,0,0],"id":1,"left_children":[1,3,5,7,9,11,13,15,17,19,21,23,25,27,29,31,33,-1,35,37,39,41,43,-1,45,47,49,-1,-1,51,53,55,57,59,61,-1,63,-1,65,67,69,71,73,75,-1,77,79,81,83,85,-1,-1,87,89,91,-1,-1,93,-1,-1,-1,-1,-1,95,97,-1,99,-1,-1,101,103,-1,-1,105,-1,-1,-1,107,109,111,-1,113,115,117,119,-1,-1,-1,-1,-1,-1,121,123,-1,-1,-1,125,-1,-1,127,129,-1,-1,131,133,135,-1,-1,137,-1,-1,-1,-1,-1,-1,139,141,-1,143,-1,145,-1,147,-1,149,-1,-1,151,153,-1,155,-1,157,-1,-1,-1,159,-1,-1,161,-1,-1,163,-1,165,-1,-1,167,169,-1,-1,-1,-1,-1,-1,-1,-1,-1,-1,-1,-1,-1,-1,-1,-1,-1,-1,-1,-1,-1,-1],"loss_changes":[1.3973852E4,2.4950586E2,3.958296E2,8.419156E1,2.594629E2,2.0435681E2,1.8886328E2,2.4343967E1,4.9740295E0,6.758148E1,1.400664E2,4.6820312E1,7.892166E1,7.6894693E0,1.6774951E2,1.3048444E1,9.453575E0,0E0,8.82415E0,1.6387024E1,5.252475E1,8.315234E1,1.9996094E1,0E0,3.5103638E1,7.4817474E1,1.1359266E1,0E0,0E0,8.286258E0,1.1851807E2,3.4936295E0,1.0535319E1,5.405674E0,4.9604864E0,0E0,7.5243454E0,0E0,4.189981E1,6.151779E0,5.3038555E1,1.2300903E1,1.273645E1,2.9597168E0,0E0,1.9277832E1,1.2086792E1,3.5117126E1,1.3932087E1,6.825639E0,0E0,0E0,4.7258515E0,5.05448E0,4.0924316E1,0E0,0E0,3.3922505E0,0E0,0E0,0E0,0E0,0E0,3.3005786E0,3.5209274E0,0E0,1.0817215E1,0E0,0E0,9.11113E0,8.021881E0,0E0,0E0,1.3131836E1,0E0,0E0,0E0,9.474152E0,4.3977175E0,7.595215E0,0E0,1.0099829E1,1.5325378E1,7.31563E0,4.1050916E0,0E0,0E0,0E0,0E0,0E0,0E0,3.2890625E1,7.672928E0,0E0,0E0,0E0,3.9357626E0,0E0,0E0,1.1675659E1,9.012388E0,0E0,0E0,5.4139175E0,5.464404E0,6.070694E0,0E0,0E0,3.7445374E0,0E0,0E0,0E0,0E0,0E0,0E0,6.6106415E0,4.818695E0,0E0,4.2045174E0,0E0,3.8903437E0,0E0,4.376245E1,0E0,6.7871876E0,0E0,0E0,3.0714273E0,6.17749E0,0E0,2.9847267E0,0E0,5.46677E0,0E0,0E0,0E0,7.6562614E0,0E0,0E0,5.530182E0,0E0,0E0,3.5205383E0,0E0,3.262146E0,0E0,0E0,8.174561E0,1.0281113E1,0E0,0E0,0E0,0E0,0E0,0E0,0E0,0E0,0E0,0E0,0E0,0E0,0E0,0E0,0E0,0E0,0E0,0E0,0E0,0E0,0E0,0E0],"parents":[2147483647,0,0,1,1,2,2,3,3,4,4,5,5,6,6,7,7,8,8,9,9,10,10,11,11,12,12,13,13,14,14,15,15,16,16,18,18,19,19,20,20,21,21,22,22,24,24,25,25,26,26,29,29,30,30,31,31,32,32,33,33,34,34,36,36,38,38,39,39,40,40,41,41,42,42,43,43,45,45,46,46,47,47,48,48,49,49,52,52,53,53,54,54,57,57,63,63,64,64,66,66,69,69,70,70,73,73,77,77,78,78,79,79,81,81,82,82,83,83,84,84,91,91,92,92,96,96,99,99,100,100,103,103,104,104,105,105,108,108,115,115,116,116,118,118,120,120,122,122,124,124,127,127,128,128,130,130,132,132,136,136,139,139,142,142,144,144,147,147,148,148],"right_children":[2,4,6,8,10,12,14,16,18,20,22,24,26,28,30,32,34,-1,36,38,40,42,44,-1,46,48,50,-1,-1,52,54,56,58,60,62,-1,64,-1,66,68,70,72,74,76,-1,78,80,82,84,86,-1,-1,88,90,92,-1,-1,94,-1,-1,-1,-1,-1,96,98,-1,100,-1,-1,102,104,-1,-1,106,-1,-1,-1,108,110,112,-1,114,116,118,120,-1,-1,-1,-1,-1,-1,122,124,-1,-1,-1,126,-1,-1,128,130,-1,-1,132,134,136,-1,-1,138,-1,-1,-1,-1,-1,-1,140,142,-1,144,-1,146,-1,148,-1,150,-1,-1,152,154,-1,156,-1,158,-1,-1,-1,160,-1,-1,162,-1,-1,164,-1,166,-1,-1,168,170,-1,-1,-1,-1,-1,-1,-1,-1,-1,-1,-1,-1,-1,-1,-1,-1,-1,-1,-1,-1,-1,-1],"split_conditions":[1E0,2E0,4E0,1.056297E0,2E0,4.7036988E-1,-3.9011705E-1,6.111111E-1,5.7575756E-1,4.7368422E-1,3.5097E1,1E0,2.8067646E0,3.3514957E0,-4.0716657E-1,5.0574714E-1,6E0,4.1908376E-2,2E0,3.457217E-1,1.18470654E-1,5.989978E-1,7.6E-1,-6.5649212E-3,2E0,2.3397617E0,4.264965E0,-1.2429086E-2,1.40752895E-2,1.2727273E-1,1E0,-4.4345403E0,1.2791882E0,1.1080022E0,4.2528737E-1,-0E0,1.7548106E0,6.585264E-2,2.3933549E-1,1.5520629E1,3.8266525E-2,-4.715165E0,1.6976557E0,7.733952E0,5.491919E-2,2.9312158E0,6.3332705E0,2E0,5.6620975E1,7.368421E-1,7.5485446E-3,1.8964013E-2,5.0489902E0,1.0800062E0,3.153155E0,3.9434068E-2,2.1054332E-4,3.4545454E-1,1.5587631E-2,-3.586118E-2,-0E0,2.2381267E-2,-1.0199227E-2,7.7011496E-1,2.4691358E-2,6.817891E-2,1E0,6.8797165E-4,5.810274E-2,8.3870965E-1,1E0,6.9669604E-2,5.4070223E-2,1.8909782E0,5.0349224E-2,7.371149E-2,2.6342075E-2,1.8331264E0,3.846154E-1,-6.463933E-2,-8.243605E-3,1.4096525E-1,2E0,2E0,4.074074E1,-2.0109925E-2,-0E0,-2.1958765E-2,8.4281666E-4,-0E0,2.699759E-2,4.7036988E-1,5.3763443E-1,-0E0,-3.082793E-2,2.1604845E-2,2.3059814E0,7.402863E-4,4.203687E-2,2.5862068E-1,-2.6737692E1,5.7499606E-2,3.2599622E-3,1.369863E-2,2.6760563E-1,1.5246067E1,4.9122546E-2,-5.4416057E-2,-2.990926E1,-2.1634474E-2,-0E0,-1.6918408E-2,-6.689951E-2,2.2533853E-3,-2.4751095E-2,9.7530866E-1,-1.684447E-1,-1.7841292E-3,-3.0769196E-1,-0E0,1.6049382E-1,-7.635456E-2,2.463567E0,-5.078525E-2,5.0700383E0,-1.0630059E-2,1.9679481E-2,1.3580246E-1,8.928572E-2,3.170954E-2,2.1333334E-1,-3.2822567E-3,1E0,-2.2941194E-2,4.1378988E-4,3.31379E-2,1.3412817E0,-3.7233606E-3,-3.5921916E-2,1.6976557E0,-0E0,-1.883614E-2,-2.7009508E-1,-0E0,-4.132159E0,-0E0,4.0027793E-2,2E0,2.9931158E-2,-2.7814552E-2,-0E0,-0E0,2.1159118E-2,3.1050502E-3,5.11981E-2,1.0172979E-2,-1.0467566E-2,1.4366338E-2,-0E0,3.0222237E-3,2.7845226E-2,-3.6404528E-2,-1.4722207E-2,-9.802332E-3,-5.113448E-2,-0E0,-3.2227233E-2,-3.6864888E-2,-6.729666E-2,-1.2208656E-2,-4.5717884E-2],"split_indices":[12,3,12,16,13,6,17,6,6,6,10,3,16,16,16,7,13,0,13,17,17,6,6,0,12,17,16,0,0,5,3,2,17,17,7,0,16,0,16,10,16,2,16,17,0,17,17,3,0,6,0,0,17,16,16,0,0,6,0,0,0,0,0,7,8,0,15,0,0,6,14,0,0,17,0,0,0,16,6,17,0,5,12,12,10,0,0,0,0,0,0,6,6,0,0,0,17,0,0,4,0,0,0,4,5,0,0,0,0,0,0,0,0,0,0,8,17,0,16,0,8,0,17,0,16,0,0,8,5,0,6,0,15,0,0,0,17,0,0,16,0,0,16,0,2,0,0,3,16,0,0,0,0,0,0,0,0,0,0,0,0,0,0,0,0,0,0,0,0,0,0],"split_type":[0,0,0,0,0,0,0,0,0,0,0,0,0,0,0,0,0,0,0,0,0,0,0,0,0,0,0,0,0,0,0,0,0,0,0,0,0,0,0,0,0,0,0,0,0,0,0,0,0,0,0,0,0,0,0,0,0,0,0,0,0,0,0,0,0,0,0,0,0,0,0,0,0,0,0,0,0,0,0,0,0,0,0,0,0,0,0,0,0,0,0,0,0,0,0,0,0,0,0,0,0,0,0,0,0,0,0,0,0,0,0,0,0,0,0,0,0,0,0,0,0,0,0,0,0,0,0,0,0,0,0,0,0,0,0,0,0,0,0,0,0,0,0,0,0,0,0,0,0,0,0,0,0,0,0,0,0,0,0,0,0,0,0,0,0,0,0,0,0,0,0],"sum_hessian":[1.1062695E4,5.544632E3,5.518063E3,8.023667E2,4.742265E3,2.4562522E3,3.0618108E3,2.2315405E2,5.7921265E2,9.9459204E2,3.7476733E3,1.0762494E3,1.3800029E3,8.582751E1,2.9759832E3,1.3623721E2,8.691684E1,3.4051776E2,2.3869489E2,4.7411157E2,5.2048047E2,1.8447092E3,1.902964E3,5.476039E1,1.021489E3,1.1299203E3,2.5008261E2,3.138605E1,5.4441456E1,7.388764E1,2.9020957E3,5.8116184E1,7.8121025E1,5.5575363E1,3.134148E1,3.4324684E1,2.043702E2,1.1767124E2,3.564403E2,9.468466E1,4.2579584E2,1.065165E3,7.795443E2,1.6004375E3,3.025265E2,4.5898593E2,5.625031E2,8.835133E2,2.4640694E2,1.269752E2,1.2310742E2,3.404318E1,3.9844467E1,4.1281166E1,2.8608145E3,3.9714714E1,1.8401468E1,3.1143677E1,4.697735E1,3.840273E1,1.7172634E1,1.3903813E1,1.7437666E1,7.2084564E1,1.3228563E2,9.238577E1,2.6405453E2,1.2171941E1,8.2512726E1,7.6366425E1,3.4942938E2,4.151054E2,6.500596E2,5.3774274E2,2.4180156E2,1.5795817E3,2.0855825E1,3.8949728E2,6.948863E1,5.450778E2,1.7425278E1,9.509142E1,7.8842194E2,1.9643816E2,4.9968784E1,7.596901E1,5.1006187E1,2.6917376E1,1.292709E1,2.738286E1,1.3898306E1,2.7002747E3,1.6053973E2,1.56777E1,1.5465976E1,4.0493446E1,3.159112E1,1.5660189E1,1.1662545E2,1.874746E2,7.6579956E1,5.897652E1,1.7389906E1,3.0113312E2,4.829627E1,4.1002652E2,1.2771621E2,2.7011584E2,1.1938144E2,5.431619E1,1.5172446E1,2.0422052E1,5.2465576E2,5.422369E1,4.086773E1,3.5758875E2,4.3083316E2,9.830419E1,9.813396E1,1.8665901E1,3.1302883E1,1.2190874E3,1.4811873E3,9.6781136E1,6.3758602E1,1.9426428E1,1.2164691E1,7.779095E1,1.0968364E2,2.3081612E1,5.349834E1,4.032371E1,2.6080942E2,2.815786E1,2.0138407E1,2.6265448E2,1.4737202E2,2.5894226E1,9.348721E1,3.3917526E2,1.8413483E1,3.935622E1,3.9147696E2,2.5131683E1,7.300227E1,1.8903364E1,1.2399519E1,1.3456473E3,1.3553996E2,5.082929E1,1.2929315E1,2.0398344E1,5.7392605E1,1.6654966E1,9.302868E1,2.3363842E1,3.0134499E1,2.180087E2,4.2800724E1,7.758625E1,6.9785774E1,2.6495953E2,7.421574E1,1.8924171E1,3.7255276E2,1.2195507E1,6.0806767E1,6.255798E1,1.2830894E3,5.652649E1,7.901348E1],"tree_param":{"num_deleted":"0","num_feature":"18","num_nodes":"171","size_leaf_vector":"1"}},{"base_weights":[-8.761898E-6,1.0737654E0,-1.0776454E0,5.634338E-1,1.1595064E0,-7.121451E-1,-1.2662414E0,2.135799E-2,7.634481E-1,7.074769E-1,1.27726E0,-7.6942456E-1,-0E0,1.1146533E-1,-1.3115357E0,-2.2984205E-1,3.6419517E-1,7.7660143E-1,-0E0,1.1739506E0,5.5531675E-1,1.0716559E0,1.4717813E0,-8.972394E-1,-4.814605E-1,1.926619E-1,-4.24658E-1,-8.727936E-3,3.447621E-1,-1.3160262E-1,-1.3556471E0,9.814815E-2,-6.864607E-1,3.0388864E-2,-0E0,1.3793346E-2,8.1370604E-1,6.344198E-2,4.3629932E-1,1.1246597E0,3.3560842E-1,9.139275E-1,5.767131E-2,1.2289423E0,7.045155E-2,-7.059137E-1,-1.0837739E0,-0E0,-5.6757814E-1,1.5388577E-2,-0E0,-0E0,-2.8461687E-2,2.0962128E-2,-0E0,-2.9917747E-1,2.5316441E-2,1.3332033E-1,-1.3809378E0,1.6216785E-2,-4.407936E-3,-3.770697E-2,-0E0,4.9755433E-1,4.0556747E-2,-0E0,2.6786383E-2,6.2116306E-2,3.4143725E-1,1.9727196E-1,7.6057214E-1,1.113773E0,7.2571266E-1,8.270368E-1,6.2084332E-2,-7.968724E-1,-1.210195E-1,-0E0,-5.1853E-2,-3.8106203E-1,-8.540481E-1,-0E0,-2.324178E-2,-8.4607484E-4,3.517396E-2,-1.4186729E0,-8.0137783E-1,6.1027044E-3,6.756861E-1,-0E0,2.8386068E-2,1.597971E-2,4.2878538E-1,-0E0,3.785995E-2,8.261068E-1,1.3145416E0,4.8186257E-1,4.8171606E-2,8.7209735E-3,4.454012E-2,-6.122601E-1,-4.559708E-2,2.6448898E-3,-2.3036692E-2,3.0713584E-4,-4.4241473E-1,-5.486541E-1,-5.367053E-2,-8.6179894E-1,-1.4418105E0,-8.7314826E-1,-0E0,2.0093743E-3,8.9304453E-1,-1.1624366E-1,2.1877629E-1,1.7520064E-3,6.242164E-1,-0E0,8.7282026E-1,6.4363025E-2,2.4752138E-2,2.907834E-1,3.6018357E-2,-6.955206E-1,-1.5009524E-1,-4.7791508E-1,-0E0,-0E0,-7.610679E-1,-5.233135E-2,-2.7014786E-1,-1.4477091E0,-0E0,-4.0764955E-1,-1.0258571E0,5.3494014E-2,8.882451E-4,-0E0,-1.7914053E-2,2.3865212E-2,-4.341694E-3,3.2778274E-2,-0E0,1.1115682E-2,4.3684542E-2,6.7810146E-3,4.040318E-2,-3.8093008E-2,-1.5538106E-2,-0E0,-1.6295051E-2,-1.3127535E-2,-2.9974995E-2,-4.0603653E-2,-0E0,-0E0,-2.4370948E-2,-4.7902394E-2,-6.79376E-2,-2.5695777E-2,-0E0,-1.693045E-2,-5.331624E-2],"categories":[],"categories_nodes":[],"categories_segments":[],"categories_sizes":[],"default_left":[0,0,0,0,0,0,0,0,0,0,0,0,0,0,0,0,0,0,0,0,0,0,0,0,0,0,0,0,0,0,0,0,0,0,0,0,0,0,0,0,0,0,0,0,0,0,0,0,0,0,0,0,0,0,0,0,0,0,0,0,0,0,0,0,0,0,0,0,0,0,0,0,0,0,0,0,0,0,0,0,0,0,0,0,0,0,0,0,0,0,0,0,0,0,0,0,0,0,0,0,0,0,0,0,0,0,0,0,0,0,0,0,0,0,0,0,0,0,0,0,0,0,0,0,0,0,0,0,0,0,0,0,0,0,0,0,0,0,0,0,0,0,0,0,0,0,0,0,0,0,0,0,0,0,0,0,0,0,0,0,0,0,0,0,0],"id":2,"left_children":[1,3,5,7,9,11,13,15,17,19,21,23,25,27,29,31,33,35,-1,37,39,41,43,45,47,49,51,-1,53,55,57,59,61,-1,-1,-1,63,-1,65,67,69,71,-1,73,-1,75,77,-1,79,-1,-1,-1,-1,-1,-1,81,-1,83,85,-1,-1,-1,-1,87,-1,-1,-1,-1,89,91,93,95,97,99,-1,101,103,-1,-1,105,107,-1,-1,-1,-1,109,111,-1,113,-1,-1,115,117,-1,-1,119,121,123,-1,-1,-1,125,-1,-1,-1,-1,127,129,-1,131,133,135,-1,-1,137,139,141,-1,143,-1,145,-1,-1,147,-1,149,151,153,-1,-1,155,-1,157,159,-1,161,163,-1,-1,-1,-1,-1,-1,-1,-1,-1,-1,-1,-1,-1,-1,-1,-1,-1,-1,-1,-1,-1,-1,-1,-1,-1,-1,-1,-1],"loss_changes":[1.2773703E4,2.321084E2,3.6830322E2,8.401993E1,2.3967041E2,7.373834E1,2.3202295E2,2.0404171E1,3.2988586E0,6.052173E1,1.331919E2,5.6667603E1,1.3482783E1,8.956532E0,1.754917E2,2.1614197E1,1.003327E1,4.317047E0,0E0,2.4951508E1,8.727109E1,3.8958496E1,8.342773E0,3.2231323E1,2.4516327E1,4.017338E0,5.3076153E0,0E0,3.448845E0,1.4570414E1,1.3354736E2,4.685872E0,3.433899E0,0E0,0E0,0E0,3.3419495E0,0E0,4.2396393E0,2.6743622E1,2.800436E1,2.701416E1,0E0,5.503662E0,0E0,2.7974792E1,2.3282532E1,0E0,1.8772736E1,0E0,0E0,0E0,0E0,0E0,0E0,7.917781E0,0E0,8.797383E0,5.9370117E1,0E0,0E0,0E0,0E0,3.1218376E0,0E0,0E0,0E0,0E0,6.9706173E0,1.6126125E1,4.131195E0,1.4210754E1,3.342572E1,3.5855637E0,0E0,9.452759E0,8.334452E0,0E0,0E0,9.182335E0,6.951256E0,0E0,0E0,0E0,0E0,2.6015625E1,9.833511E0,0E0,4.398115E0,0E0,0E0,7.4290934E0,1.0583015E1,0E0,0E0,6.067932E0,5.779358E0,1.2669037E1,0E0,0E0,0E0,6.82708E0,0E0,0E0,0E0,0E0,5.2209244E0,1.1151924E1,0E0,1.5270454E1,2.3154785E1,6.1947174E0,0E0,0E0,4.3957596E0,5.686805E0,1.29327545E1,0E0,4.6580925E0,0E0,3.2362823E0,0E0,0E0,1.2475134E1,0E0,4.824272E0,2.999578E0,3.700344E0,0E0,0E0,3.7438622E0,0E0,4.452896E0,1.6339844E1,0E0,4.835822E0,3.7735748E0,0E0,0E0,0E0,0E0,0E0,0E0,0E0,0E0,0E0,0E0,0E0,0E0,0E0,0E0,0E0,0E0,0E0,0E0,0E0,0E0,0E0,0E0,0E0,0E0,0E0,0E0,0E0,0E0],"parents":[2147483647,0,0,1,1,2,2,3,3,4,4,5,5,6,6,7,7,8,8,9,9,10,10,11,11,12,12,13,13,14,14,15,15,16,16,17,17,19,19,20,20,21,21,22,22,23,23,24,24,25,25,26,26,28,28,29,29,30,30,31,31,32,32,36,36,38,38,39,39,40,40,41,41,43,43,45,45,46,46,48,48,55,55,57,57,58,58,63,63,68,68,69,69,70,70,71,71,72,72,73,73,75,75,76,76,79,79,80,80,85,85,86,86,88,88,91,91,92,92,95,95,96,96,97,97,101,101,106,106,107,107,109,109,110,110,111,111,114,114,115,115,116,116,118,118,120,120,123,123,125,125,126,126,127,127,130,130,132,132,133,133,135,135,136,136],"right_children":[2,4,6,8,10,12,14,16,18,20,22,24,26,28,30,32,34,36,-1,38,40,42,44,46,48,50,52,-1,54,56,58,60,62,-1,-1,-1,64,-1,66,68,70,72,-1,74,-1,76,78,-1,80,-1,-1,-1,-1,-1,-1,82,-1,84,86,-1,-1,-1,-1,88,-1,-1,-1,-1,90,92,94,96,98,100,-1,102,104,-1,-1,106,108,-1,-1,-1,-1,110,112,-1,114,-1,-1,116,118,-1,-1,120,122,124,-1,-1,-1,126,-1,-1,-1,-1,128,130,-1,132,134,136,-1,-1,138,140,142,-1,144,-1,146,-1,-1,148,-1,150,152,154,-1,-1,156,-1,158,160,-1,162,164,-1,-1,-1,-1,-1,-1,-1,-1,-1,-1,-1,-1,-1,-1,-1,-1,-1,-1,-1,-1,-1,-1,-1,-1,-1,-1,-1,-1],"split_conditions":[1E0,2E0,3E0,1.056297E0,2E0,5.1498875E1,-3.9011705E-1,1.2791882E0,8.8173485E0,2.930585E-1,3.5097E1,1.7912219E0,2.1794471E-1,3.4697618E0,-3.0769196E-1,5.2873564E-1,1E2,1.0878492E1,-0E0,5.399689E1,2.1869358E-1,2.1568628E-1,3E0,1.9148937E-1,-1.89235E-1,4.97673E1,1.14285715E-1,-8.727936E-3,1.875E-1,7.754484E1,1E0,-1.3403349E1,3.623587E-1,3.0388864E-2,-0E0,1.3793346E-2,5.882353E-2,6.344198E-2,4.255319E-2,6.9135803E-1,3.5311005E1,-1.0041267E1,5.767131E-2,1.0344828E-1,7.045155E-2,2.6360786E0,1E0,-0E0,2E0,1.5388577E-2,-0E0,-0E0,-2.8461687E-2,2.0962128E-2,-0E0,1.0344828E-1,2.5316441E-2,-1.0041267E1,3.153155E0,1.6216785E-2,-4.407936E-3,-3.770697E-2,-0E0,4E0,4.0556747E-2,-0E0,2.6786383E-2,6.2116306E-2,8.8602495E-1,2.826087E-1,3.2786883E-2,1.875E-1,1.8076445E0,9.4339624E-2,6.2084332E-2,2.4614182E-1,2E0,-0E0,-5.1853E-2,1E0,2.8405315E-1,-0E0,-2.324178E-2,-8.4607484E-4,3.517396E-2,2E0,2.0120897E0,6.1027044E-3,1.7548106E0,-0E0,2.8386068E-2,2.6865673E-1,1.20472096E-1,-0E0,3.785995E-2,7.7641934E-1,1.6211941E0,5.7023697E1,4.8171606E-2,8.7209735E-3,4.454012E-2,8.271605E-1,-4.559708E-2,2.6448898E-3,-2.3036692E-2,3.0713584E-4,6.2063556E0,1.4863694E-1,-5.367053E-2,7.553504E-1,8.942131E1,-2.3811342E-2,-0E0,2.0093743E-3,1E2,4.379562E1,1E0,1.7520064E-3,9.425287E-1,-0E0,3E0,6.4363025E-2,2.4752138E-2,1E0,3.6018357E-2,1.484407E0,1.9256756E1,-1.6322575E1,-0E0,-0E0,1.830135E0,-5.233135E-2,1.6222586E1,-6.165228E-2,-0E0,4.905619E0,1.0344828E-1,5.3494014E-2,8.882451E-4,-0E0,-1.7914053E-2,2.3865212E-2,-4.341694E-3,3.2778274E-2,-0E0,1.1115682E-2,4.3684542E-2,6.7810146E-3,4.040318E-2,-3.8093008E-2,-1.5538106E-2,-0E0,-1.6295051E-2,-1.3127535E-2,-2.9974995E-2,-4.0603653E-2,-0E0,-0E0,-2.4370948E-2,-4.7902394E-2,-6.79376E-2,-2.5695777E-2,-0E0,-1.693045E-2,-5.331624E-2],"split_indices":[12,3,12,16,13,11,17,17,17,17,10,16,4,16,16,7,1,11,0,9,16,4,13,4,17,9,5,0,5,11,3,0,4,0,0,0,4,0,5,8,11,0,0,5,0,17,3,0,12,0,0,0,0,0,0,5,0,0,16,0,0,0,0,13,0,0,0,0,17,5,5,5,17,4,0,5,12,0,0,3,4,0,0,0,0,3,17,0,16,0,0,4,4,0,0,16,17,9,0,0,0,8,0,0,0,0,16,5,0,17,11,17,0,0,1,10,15,0,7,0,13,0,0,14,0,17,10,0,0,0,17,0,11,16,0,16,5,0,0,0,0,0,0,0,0,0,0,0,0,0,0,0,0,0,0,0,0,0,0,0,0,0,0,0,0],"split_type":[0,0,0,0,0,0,0,0,0,0,0,0,0,0,0,0,0,0,0,0,0,0,0,0,0,0,0,0,0,0,0,0,0,0,0,0,0,0,0,0,0,0,0,0,0,0,0,0,0,0,0,0,0,0,0,0,0,0,0,0,0,0,0,0,0,0,0,0,0,0,0,0,0,0,0,0,0,0,0,0,0,0,0,0,0,0,0,0,0,0,0,0,0,0,0,0,0,0,0,0,0,0,0,0,0,0,0,0,0,0,0,0,0,0,0,0,0,0,0,0,0,0,0,0,0,0,0,0,0,0,0,0,0,0,0,0,0,0,0,0,0,0,0,0,0,0,0,0,0,0,0,0,0,0,0,0,0,0,0,0,0,0,0,0,0],"sum_hessian":[1.1033231E4,5.5244067E3,5.508824E3,8.0545166E2,4.718955E3,1.8879595E3,3.620865E3,2.2409807E2,5.813536E2,9.874353E2,3.7315198E3,1.7414651E3,1.4649438E2,1.1191495E2,3.50895E3,1.2221374E2,1.0188434E2,5.671999E2,1.4153664E1,2.3071552E2,7.567198E2,1.834646E3,1.8968737E3,1.1909109E3,5.505542E2,9.472197E1,5.1772415E1,4.058493E1,7.133002E1,1.3059288E2,3.3783572E3,6.664105E1,5.557268E1,5.2125042E1,4.9759296E1,5.1672215E1,5.155277E2,1.7413872E2,5.657681E1,2.0160483E2,5.551149E2,1.00047516E3,8.3417084E2,3.8891818E2,1.5079556E3,6.06814E2,5.8409686E2,7.910444E1,4.7144977E2,6.561172E1,2.9110254E1,1.4917307E1,3.685511E1,5.6400143E1,1.4929876E1,1.1147908E2,1.9113798E1,5.3207973E1,3.3251492E3,3.8013153E1,2.8627901E1,4.3376797E1,1.2195884E1,1.0571502E2,4.0981268E2,1.3425921E1,4.3150887E1,1.5071317E2,5.0891663E1,4.300817E2,1.2503326E2,4.665858E2,5.3388934E2,1.0252469E2,2.863935E2,5.174945E2,8.931952E1,2.4134764E1,5.5996216E2,2.9926657E2,1.7218321E2,4.301404E1,6.8465034E1,3.9322136E1,1.3885838E1,3.1105598E3,2.1458934E2,4.4710674E1,6.100434E1,1.8897831E1,3.199383E1,2.5398036E2,1.7610133E2,1.2186527E1,1.12846725E2,2.0721373E2,2.5937207E2,3.150812E2,2.1880814E2,2.5495892E1,7.70288E1,2.825328E2,2.3496167E2,5.422157E1,3.5097954E1,3.1090452E1,2.6817612E2,9.8273415E1,7.3909805E1,1.3636597E2,2.9741938E3,1.932031E2,2.1386253E1,2.1865898E1,3.9138443E1,1.4088724E2,1.13093124E2,6.763928E1,1.0846204E2,1.3923618E1,1.9329012E2,2.2716597E2,3.2206093E1,2.0520438E2,1.09876816E2,2.298076E2,5.2725224E1,2.5225832E2,1.5917791E1,2.9340387E1,6.893302E1,8.612804E1,5.0237934E1,2.961031E3,1.3162671E1,5.7724636E1,1.3547845E2,2.5234112E1,1.3904332E1,9.3304855E1,4.7582386E1,6.430107E1,4.8792053E1,9.205851E1,1.6403534E1,2.8313112E1,1.64977E2,1.739717E2,3.1232693E1,1.5614313E2,7.3664474E1,2.1617615E1,3.1107609E1,1.3517285E2,1.1708547E2,5.5508194E1,1.3424831E1,2.3355083E1,2.688285E1,1.9908937E2,2.7619417E3,4.5048912E1,1.2675722E1,3.0111538E1,1.0536692E2],"tree_param":{"num_deleted":"0","num_feature":"18","num_nodes":"165","size_leaf_vector":"1"}},{"base_weights":[3.9298544E-3,1.0284606E0,-1.0271126E0,5.4601896E-1,1.1095172E0,-7.4932045E-1,-1.2485273E0,2.0782387E-2,7.3947716E-1,6.828484E-1,1.2210447E0,-1.0682737E0,-4.976997E-1,-0E0,-1.2863812E0,3.010102E-1,-2.4347049E-1,8.44299E-1,2.4498602E-2,9.3949217E-1,4.232162E-1,1.3717159E0,9.715175E-1,-8.2278305E-1,-1.2637441E0,-5.998143E-1,-3.0797701E-2,-9.882804E-2,2.2293758E-2,-0E0,-1.3252536E0,-3.034714E-3,2.7932517E-2,-5.5478394E-1,4.7872666E-2,2.4887177E-1,9.24134E-1,6.0984734E-2,7.90468E-1,1.0505799E0,2.679137E-1,1.206835E0,6.9298975E-2,8.014957E-1,1.2746192E0,-9.170574E-1,-2.770439E-1,-7.6227747E-3,-1.2898383E0,-7.1884805E-1,-1.437147E-1,-2.037876E-1,6.211994E-3,-0E0,-1.847687E-2,-1.6878451E-1,2.7561659E-2,1.3164456E-1,-1.3485899E0,-3.6297042E-2,-0E0,2.070979E-2,-6.7135007E-3,-0E0,2.635207E-2,5.928505E-1,5.179363E-2,6.2148623E-2,5.638217E-1,1.7821253E-3,5.284372E-2,9.3803424E-1,9.9311434E-2,6.452756E-2,1.0725712E0,4.9059078E-2,6.7861646E-1,8.6351717E-1,6.2881134E-2,-4.7994676E-1,-4.6577208E-2,-1.92006E-2,4.7157958E-4,-1.3169777E0,-7.1242307E-3,-1.0747959E-1,-7.863402E-1,-2.6037788E-1,2.1591967E-1,-1.6456397E-2,1.930763E-2,3.9543672E-3,-1.8578423E-2,-0E0,2.6063364E-2,-6.982042E-2,-1.2293539E0,-0E0,3.083159E-2,1.1661454E-1,7.882907E-1,5.6334708E-2,1.1968852E-1,3.088225E-4,2.2289071E-2,5.965872E-2,4.3998107E-2,5.112447E-1,4.340032E-2,4.323647E-2,-0E0,-2.559477E-2,-0E0,-1.4730881E-2,-6.199189E-2,4.144211E-3,-2.1609163E-2,-8.7180066E-1,-4.6634015E-1,-3.6226446E-4,-4.5389175E-1,-0E0,4.5457312E-1,1.9553974E-2,-2.0539674E-3,-1.2586558E0,-2.9873085E-1,3.2619694E-1,-1.6858425E-3,4.7468644E-2,5.0955385E-1,2.225657E-2,-0E0,1.07397266E-1,-1.3999005E-1,7.51809E-1,3.763747E-1,-1.1042584E0,-7.2984195E-1,-2.5560848E-2,-0E0,-0E0,-5.7755893E-1,-0E0,3.7716933E-2,-1.2870469E0,-5.939208E-1,-1.9406172E-2,-0E0,2.8960552E-2,-0E0,-0E0,2.7851274E-2,-0E0,9.801602E-3,2.0032853E-2,-1.301429E-2,1.7325146E-2,4.50351E-2,1.0100492E-2,2.8107114E-2,-5.499096E-2,-1.5168565E-2,-3.4947176E-2,-0E0,-3.214834E-2,-0E0,-6.0879856E-2,-3.619867E-2,-3.1860422E-2,-0E0],"categories":[],"categories_nodes":[],"categories_segments":[],"categories_sizes":[],"default_left":[0,0,0,0,0,0,0,0,0,0,0,0,0,0,0,0,0,0,0,0,0,0,0,0,0,0,0,0,0,0,0,0,0,0,0,0,0,0,0,0,0,0,0,0,0,0,0,0,0,0,0,0,0,0,0,0,0,0,0,0,0,0,0,0,0,0,0,0,0,0,0,0,0,0,0,0,0,0,0,0,0,0,0,0,0,0,0,0,0,0,0,0,0,0,0,0,0,0,0,0,0,0,0,0,0,0,0,0,0,0,0,0,0,0,0,0,0,0,0,0,0,0,0,0,0,0,0,0,0,0,0,0,0,0,0,0,0,0,0,0,0,0,0,0,0,0,0,0,0,0,0,0,0,0,0,0,0,0,0,0,0,0,0,0,0,0,0,0,0,0,0],"id":3,"left_children":[1,3,5,7,9,11,13,15,17,19,21,23,25,27,29,31,33,35,-1,37,39,41,43,45,47,49,51,53,-1,55,57,-1,-1,59,61,63,65,-1,67,69,71,73,-1,75,77,79,81,-1,83,85,87,89,-1,-1,-1,91,-1,93,95,-1,-1,-1,-1,-1,-1,97,-1,-1,99,-1,-1,101,103,-1,105,-1,107,109,-1,111,-1,-1,-1,113,-1,115,117,119,121,-1,123,-1,-1,-1,-1,-1,125,-1,-1,127,129,-1,131,133,-1,-1,-1,135,-1,-1,-1,-1,-1,-1,-1,-1,-1,137,139,-1,141,-1,143,-1,-1,145,147,149,-1,-1,151,-1,-1,153,155,157,159,161,163,-1,-1,-1,165,-1,-1,167,169,-1,-1,-1,-1,-1,-1,-1,-1,-1,-1,-1,-1,-1,-1,-1,-1,-1,-1,-1,-1,-1,-1,-1,-1],"loss_changes":[1.1613629E4,2.0643164E2,3.2508887E2,7.852719E1,2.1314209E2,1.8761292E2,1.4920361E2,1.7258234E1,5.1409607E0,5.870691E1,1.254541E2,3.872986E1,6.2898407E1,6.1109943E0,1.4392188E2,1.5975695E1,1.235332E1,1.1500946E1,0E0,1.5225403E1,4.257363E1,3.258545E1,6.092212E1,1.9140106E1,9.339722E0,5.6831604E1,7.8092175E0,3.7639692E0,0E0,8.376719E0,1.0330615E2,0E0,0E0,1.1028954E1,5.605828E0,5.6129646E0,1.1237335E1,0E0,3.550296E1,3.6005096E0,4.201716E1,1.1785522E1,0E0,2.001007E1,4.816101E0,8.651428E0,5.224896E0,0E0,9.986389E0,3.2128235E1,1.0616603E1,6.3903513E0,0E0,0E0,0E0,6.1431007E0,0E0,4.672988E0,3.8090332E1,0E0,0E0,0E0,0E0,0E0,0E0,7.3309555E0,0E0,0E0,2.288874E1,0E0,0E0,1.1590492E1,1.0776584E1,0E0,3.1398315E0,0E0,2.0763977E1,3.4656067E0,0E0,3.0193787E0,0E0,0E0,0E0,6.5335083E0,0E0,8.834942E0,1.4280853E1,7.4318676E0,4.493365E0,0E0,3.0319216E0,0E0,0E0,0E0,0E0,0E0,3.746631E1,0E0,0E0,4.5974717E0,3.167389E0,0E0,3.1085908E0,4.156074E0,0E0,0E0,0E0,7.5441284E0,0E0,0E0,0E0,0E0,0E0,0E0,0E0,0E0,0E0,9.354218E0,9.082516E0,0E0,4.7512455E0,0E0,3.167861E0,0E0,0E0,1.973706E1,2.966898E0,4.4427133E0,0E0,0E0,3.9797306E0,0E0,0E0,2.9031549E0,8.3073225E0,4.1668777E0,6.2858505E0,6.605896E0,6.078537E0,0E0,0E0,0E0,3.20298E0,0E0,0E0,1.3798096E1,3.9793892E0,0E0,0E0,0E0,0E0,0E0,0E0,0E0,0E0,0E0,0E0,0E0,0E0,0E0,0E0,0E0,0E0,0E0,0E0,0E0,0E0,0E0,0E0,0E0,0E0],"parents":[2147483647,0,0,1,1,2,2,3,3,4,4,5,5,6,6,7,7,8,8,9,9,10,10,11,11,12,12,13,13,14,14,15,15,16,16,17,17,19,19,20,20,21,21,22,22,23,23,24,24,25,25,26,26,27,27,29,29,30,30,33,33,34,34,35,35,36,36,38,38,39,39,40,40,41,41,43,43,44,44,45,45,46,46,48,48,49,49,50,50,51,51,55,55,57,57,58,58,65,65,68,68,71,71,72,72,74,74,76,76,77,77,79,79,83,83,85,85,86,86,87,87,88,88,90,90,96,96,99,99,100,100,102,102,103,103,107,107,117,117,118,118,120,120,122,122,125,125,126,126,127,127,130,130,133,133,134,134,135,135,136,136,137,137,138,138,142,142,145,145,146,146],"right_children":[2,4,6,8,10,12,14,16,18,20,22,24,26,28,30,32,34,36,-1,38,40,42,44,46,48,50,52,54,-1,56,58,-1,-1,60,62,64,66,-1,68,70,72,74,-1,76,78,80,82,-1,84,86,88,90,-1,-1,-1,92,-1,94,96,-1,-1,-1,-1,-1,-1,98,-1,-1,100,-1,-1,102,104,-1,106,-1,108,110,-1,112,-1,-1,-1,114,-1,116,118,120,122,-1,124,-1,-1,-1,-1,-1,126,-1,-1,128,130,-1,132,134,-1,-1,-1,136,-1,-1,-1,-1,-1,-1,-1,-1,-1,138,140,-1,142,-1,144,-1,-1,146,148,150,-1,-1,152,-1,-1,154,156,158,160,162,164,-1,-1,-1,166,-1,-1,168,170,-1,-1,-1,-1,-1,-1,-1,-1,-1,-1,-1,-1,-1,-1,-1,-1,-1,-1,-1,-1,-1,-1,-1,-1],"split_conditions":[1E0,2E0,4E0,1.056297E0,2E0,4.7036988E-1,-3.9011705E-1,5.301205E-1,1E2,4.8387095E-1,5.989978E-1,2E0,2.8067646E0,5.653178E0,-3.533569E-1,1.3262424E1,1.0362694E0,2E0,2.4498602E-2,3.457217E-1,1.18470654E-1,3.5097E1,4.347826E1,2.9312158E0,1E0,2.3397617E0,4.4968443E0,1E1,2.2293758E-2,7.754484E1,1E0,-3.034714E-3,2.7932517E-2,7E0,6.321839E-1,1.9157088E0,1.8106263E0,6.0984734E-2,2.3933549E-1,9.4427335E-1,3.8266525E-2,-4.761431E0,6.9298975E-2,-5.4078746E0,3E0,-1.006326E1,3.846154E-1,-7.6227747E-3,6.3332705E0,2E0,5.6620975E1,7.6979506E-1,6.211994E-3,-0E0,-1.847687E-2,1.0344828E-1,2.7561659E-2,1.0800062E0,4.2857143E-1,-3.6297042E-2,-0E0,2.070979E-2,-6.7135007E-3,-0E0,2.635207E-2,1.2345679E-2,5.179363E-2,6.2148623E-2,1.7543056E1,1.7821253E-3,5.284372E-2,5.6790125E-1,3.5311005E1,6.452756E-2,2.413793E-1,4.9059078E-2,1.754386E0,4.7528515E0,6.2881134E-2,4.7528515E0,-4.6577208E-2,-1.92006E-2,4.7157958E-4,-6.463933E-2,-7.1242307E-3,1.4096525E-1,1.6221282E0,2E0,4.074074E1,-1.6456397E-2,1.7730865E1,3.9543672E-3,-1.8578423E-2,-0E0,2.6063364E-2,-6.982042E-2,5.0122547E1,-0E0,3.083159E-2,2.9545453E-1,2.5E-1,5.6334708E-2,7.037037E-1,4.4096752E1,2.2289071E-2,5.965872E-2,4.3998107E-2,-3.3505752E0,4.340032E-2,4.323647E-2,-0E0,-2.559477E-2,-0E0,-1.4730881E-2,-6.199189E-2,4.144211E-3,-2.1609163E-2,6.2234795E-1,8.271605E-1,-3.6226446E-4,-3.0769196E-1,-0E0,1.6049382E-1,1.9553974E-2,-2.0539674E-3,3.153155E0,3.201581E0,9.443508E-1,-1.6858425E-3,4.7468644E-2,2.9545453E-1,2.225657E-2,-0E0,6.268068E-1,2.7586317E-1,7.4074075E-2,7.9012346E-1,9.259259E-1,9.62963E-1,-2.5560848E-2,-0E0,-0E0,4.0479193E0,-0E0,3.7716933E-2,2.463567E0,5.0700383E0,-1.9406172E-2,-0E0,2.8960552E-2,-0E0,-0E0,2.7851274E-2,-0E0,9.801602E-3,2.0032853E-2,-1.301429E-2,1.7325146E-2,4.50351E-2,1.0100492E-2,2.8107114E-2,-5.499096E-2,-1.5168565E-2,-3.4947176E-2,-0E0,-3.214834E-2,-0E0,-6.0879856E-2,-3.619867E-2,-3.1860422E-2,-0E0],"split_indices":[12,3,12,16,13,6,17,6,1,6,6,12,16,16,16,11,17,13,0,17,17,10,10,17,3,17,16,12,0,11,3,0,0,13,7,17,16,0,16,16,16,2,0,2,13,2,6,0,17,3,0,6,0,0,0,5,0,16,6,0,0,0,0,0,0,5,0,0,11,0,0,8,11,0,6,0,17,16,0,16,0,0,0,17,0,5,16,12,10,0,11,0,0,0,0,0,11,0,0,6,6,0,6,10,0,0,0,2,0,0,0,0,0,0,0,0,0,17,8,0,16,0,8,0,0,16,16,17,0,0,6,0,0,16,16,5,8,8,8,0,0,0,17,0,0,17,16,0,0,0,0,0,0,0,0,0,0,0,0,0,0,0,0,0,0,0,0,0,0,0,0],"split_type":[0,0,0,0,0,0,0,0,0,0,0,0,0,0,0,0,0,0,0,0,0,0,0,0,0,0,0,0,0,0,0,0,0,0,0,0,0,0,0,0,0,0,0,0,0,0,0,0,0,0,0,0,0,0,0,0,0,0,0,0,0,0,0,0,0,0,0,0,0,0,0,0,0,0,0,0,0,0,0,0,0,0,0,0,0,0,0,0,0,0,0,0,0,0,0,0,0,0,0,0,0,0,0,0,0,0,0,0,0,0,0,0,0,0,0,0,0,0,0,0,0,0,0,0,0,0,0,0,0,0,0,0,0,0,0,0,0,0,0,0,0,0,0,0,0,0,0,0,0,0,0,0,0,0,0,0,0,0,0,0,0,0,0,0,0,0,0,0,0,0,0],"sum_hessian":[1.0988464E4,5.513857E3,5.4746064E3,8.044556E2,4.7094014E3,2.4429353E3,3.0316711E3,2.2374867E2,5.80707E2,9.8865106E2,3.7207505E3,1.0651873E3,1.377748E3,8.580169E1,2.9458694E3,1.1676616E2,1.06982506E2,3.6552698E2,2.1518E2,4.8454166E2,5.0410938E2,2.300402E3,1.4203483E3,4.8920917E2,5.75978E2,1.1218138E3,2.5593417E2,6.54458E1,2.0355894E1,8.850302E1,2.8573665E3,4.7274532E1,6.949163E1,5.8013233E1,4.8969273E1,5.137586E1,3.141511E2,1.20535675E2,3.6400598E2,9.0889824E1,4.1321954E2,1.0520321E3,1.2483701E3,9.2633295E2,4.9401532E2,4.0834564E2,8.086353E1,1.7913605E1,5.5806445E2,8.803868E2,2.414271E2,1.3830968E2,1.17624504E2,4.0783478E1,2.466232E1,7.4121445E1,1.43815775E1,4.1756348E1,2.81561E3,4.5090622E1,1.2922611E1,2.233829E1,2.6630985E1,2.683429E1,2.454157E1,1.311222E2,1.8302892E2,9.515759E1,2.688484E2,1.2357468E1,7.853235E1,7.4973015E1,3.3824652E2,4.0581958E2,6.462125E2,2.759738E2,6.503592E2,1.0334457E2,3.9067075E2,8.382966E1,3.2451596E2,6.420971E1,1.6653824E1,5.406605E2,1.7403906E1,9.498823E1,7.8539856E2,1.9246483E2,4.8962265E1,9.3042564E1,4.526711E1,2.7091019E1,4.7030422E1,2.7630249E1,1.4126099E1,1.1442998E3,1.6713102E3,1.2429464E1,1.18692726E2,9.810434E1,1.7074405E2,5.043625E1,2.453677E1,2.807072E2,5.7539318E1,2.0041713E2,4.4579538E2,4.1337515E2,2.3698404E2,9.10196E1,1.2324966E1,7.164035E1,1.2189311E1,2.0371998E1,5.202885E2,5.4690342E1,4.0297882E1,6.046714E2,1.8072716E2,9.5028915E1,9.743591E1,1.8415436E1,3.054683E1,1.3656374E1,3.1610735E1,1.6145549E3,5.6755276E1,5.260803E1,4.549631E1,7.8480736E1,9.226331E1,1.2110074E1,1.2426696E1,1.7800252E2,1.027047E2,1.3159657E2,2.8177856E2,2.0963554E2,3.9503586E2,1.5639615E2,2.433101E1,2.4124117E1,7.33118E1,1.8402315E1,1.2144515E1,1.5392428E3,7.5312035E1,4.384326E1,1.2912014E1,2.3300251E1,2.9307775E1,1.6634207E1,7.5629105E1,7.062257E1,1.0737995E2,1.2862455E1,8.984225E1,5.983193E1,7.176465E1,1.8346341E2,9.831516E1,1.8133624E2,2.82993E1,3.7618677E2,1.8849092E1,5.5909443E1,1.7402353E1,1.4281635E3,1.1107936E2,6.3132687E1,1.2179348E1],"tree_param":{"num_deleted":"0","num_feature":"18","num_nodes":"171","size_leaf_vector":"1"}},{"base_weights":[-7.7077054E-4,9.863651E-1,-9.9380976E-1,5.0916606E-1,1.0666307E0,-7.6722884E-1,-1.24235E0,2.9478433E-2,6.8866706E-1,7.747664E-1,1.2231833E0,-8.2621825E-1,-9.053254E-2,1.4511328E-2,-1.2784057E0,3.3088446E-1,-1.8078713E-1,8.151876E-3,7.159978E-1,1.1954294E0,6.431884E-1,1.0298904E0,6.4980984E-2,-5.838548E-1,-9.8146856E-1,8.550131E-2,-3.8976142E-1,1.3594567E-2,-1.2364542E-2,-0E0,-1.3091471E0,-0E0,2.5261331E-2,-6.194548E-1,1.415216E-1,8.242289E-1,2.3137815E-2,6.295886E-2,7.109298E-1,1.0858139E0,4.9021745E-1,1.2160438E0,9.12805E-1,-7.0921E-1,-3.021011E-1,-1.6850433E-1,-1.0409043E0,3.1894058E-1,-1.5674668E-3,5.695365E-6,-6.372076E-1,1.273275E-2,-8.211686E-3,2.0356423E-3,-1.3289279E0,-3.5961937E-2,-0E0,-0E0,2.1886112E-2,1.2833516E-2,8.9546865E-1,-0E0,3.6304977E-2,-0E0,1.1842426E0,3.0350813E-1,7.1485966E-1,1.2642884E0,1.7539535E-2,6.8187505E-1,4.7837988E-2,-8.4337944E-1,-3.5111162E-1,4.394946E-2,-3.8749546E-1,-3.8779122E-1,7.170083E-3,-4.095387E-1,-1.1046119E0,-0E0,2.1403586E-2,-2.6484016E-1,7.5930697E-3,-3.6811903E-2,-0E0,-1.3547945E0,-7.9252946E-1,5.630864E-1,4.9944207E-2,5.9687763E-2,6.586877E-1,8.70741E-2,5.141316E-1,4.7906688E-1,9.439311E-1,1.0141679E-2,5.9155725E-2,-0E0,7.2034734E-1,-0E0,-8.6395603E-1,-2.8110031E-2,-5.735569E-1,-7.631983E-3,2.2113228E-2,-7.526167E-2,-5.195933E-1,-0E0,-2.3347676E-2,7.35517E-3,-6.4392227E-1,-1.0928596E-2,-1.1502925E0,-2.0003771E-2,-0E0,-7.9008436E-1,-1.3747898E0,-1.3824177E-2,-9.52334E-1,-0E0,2.9131489E-2,-0E0,3.807152E-2,-0E0,1.9721856E-2,2.749673E-1,3.6211252E-2,2.309138E-1,7.482249E-1,1.704133E-3,9.984595E-1,6.1505747E-1,5.487166E-2,-7.3859316E-1,-5.069217E-2,3.6868062E-3,-2.679894E-1,-3.1852596E-2,-3.7436641E-3,-2.660575E-1,8.402423E-2,-0E0,-5.6325483E-1,-3.8774103E-2,-2.7165278E-3,-1.0118091E0,-6.1070915E-2,-4.9468536E-2,-0E0,-1.0359716E0,-1.4137987E0,-5.2178968E-2,-8.558305E-3,-4.7466527E-3,7.929127E-3,-0E0,1.96157E-2,2.3553582E-2,-4.0824492E-3,-0E0,3.8453106E-2,4.8494443E-2,3.847033E-3,1.988971E-2,3.863955E-2,-3.6436222E-2,-7.0575303E-3,-3.035779E-2,-0E0,-0E0,-2.1148069E-2,-1.203049E-3,1.784271E-2,-0E0,-2.8703801E-2,-4.030664E-2,-6.070248E-2,-5.4805633E-2,-1.9405575E-2,-4.9178354E-2,-6.652253E-2],"categories":[],"categories_nodes":[],"categories_segments":[],"categories_sizes":[],"default_left":[0,0,0,0,0,0,0,0,0,0,0,0,0,0,0,0,0,0,0,0,0,0,0,0,0,0,0,0,0,0,0,0,0,0,0,0,0,0,0,0,0,0,0,0,0,0,0,0,0,0,0,0,0,0,0,0,0,0,0,0,0,0,0,0,0,0,0,0,0,0,0,0,0,0,0,0,0,0,0,0,0,0,0,0,0,0,0,0,0,0,0,0,0,0,0,0,0,0,0,0,0,0,0,0,0,0,0,0,0,0,0,0,0,0,0,0,0,0,0,0,0,0,0,0,0,0,0,0,0,0,0,0,0,0,0,0,0,0,0,0,0,0,0,0,0,0,0,0,0,0,0,0,0,0,0,0,0,0,0,0,0,0,0,0,0,0,0,0,0,0,0,0,0,0,0,0,0,0,0,0,0],"id":4,"left_children":[1,3,5,7,9,11,13,15,17,19,21,23,25,27,29,31,33,-1,35,37,39,41,-1,43,45,47,49,-1,-1,51,53,-1,-1,55,57,59,-1,-1,61,63,65,67,69,71,73,75,77,79,81,-1,83,-1,-1,-1,85,-1,-1,-1,-1,-1,87,-1,-1,-1,89,91,93,95,-1,97,-1,99,101,103,105,107,-1,109,111,-1,-1,113,-1,-1,-1,115,117,119,-1,-1,121,123,125,127,129,-1,-1,-1,131,-1,133,135,137,-1,-1,139,141,-1,-1,-1,143,-1,145,-1,-1,147,149,-1,151,-1,-1,-1,-1,153,-1,155,-1,157,159,-1,161,163,-1,165,-1,-1,167,-1,-1,169,171,-1,173,-1,-1,175,-1,-1,-1,177,179,-1,-1,-1,-1,-1,-1,-1,-1,-1,-1,-1,-1,-1,-1,-1,-1,-1,-1,-1,-1,-1,-1,-1,-1,-1,-1,-1,-1,-1,-1],"loss_changes":[1.0727143E4,2.0135547E2,2.9541602E2,6.5857666E1,2.0220947E2,1.1025183E2,1.23111084E2,1.5354848E1,3.6435852E0,8.092255E1,9.434766E1,9.036011E1,1.41114025E1,6.026002E0,1.0161035E2,8.872036E0,2.0489937E1,0E0,5.231903E0,1.9375488E1,7.7548706E1,2.009497E1,0E0,3.1768768E1,7.083447E1,4.369179E0,1.2445862E1,0E0,0E0,3.3186092E0,7.193457E1,0E0,0E0,6.085207E0,3.0582614E0,7.114609E0,0E0,0E0,3.7871017E0,3.035849E1,3.4989716E1,1.3723267E1,1.7799927E1,2.7889557E1,1.1626886E1,9.551895E0,5.1173462E1,3.0196185E0,4.670898E0,0E0,3.9816704E0,0E0,0E0,0E0,2.0816895E1,0E0,0E0,0E0,0E0,0E0,8.970154E0,0E0,0E0,0E0,5.453827E0,2.1761063E1,1.5022446E1,2.993103E0,0E0,9.175674E0,0E0,8.333527E0,1.2169615E1,7.0621877E0,8.831772E0,4.786227E0,0E0,2.2046616E1,4.5699585E1,0E0,0E0,2.9954824E0,0E0,0E0,0E0,1.3023926E1,3.4509811E0,4.1714745E0,0E0,0E0,5.1313515E0,7.4583836E0,1.1601921E1,9.989502E0,5.138916E0,0E0,0E0,0E0,6.4031525E0,0E0,3.8801575E0,3.4166462E0,2.9675064E0,0E0,0E0,3.8624928E0,4.9456787E0,0E0,0E0,0E0,8.464481E0,0E0,1.6015137E1,0E0,0E0,2.3131859E1,1.3870605E1,0E0,5.4570847E0,0E0,0E0,0E0,0E0,4.290535E0,0E0,7.602665E0,0E0,1.365068E1,4.219166E0,0E0,3.7116241E0,5.062912E0,0E0,5.8441925E0,0E0,0E0,4.9173617E0,0E0,0E0,4.3095684E0,3.0911999E0,0E0,4.7920113E0,0E0,0E0,1.726593E1,0E0,0E0,0E0,1.4943115E1,4.435791E0,0E0,0E0,0E0,0E0,0E0,0E0,0E0,0E0,0E0,0E0,0E0,0E0,0E0,0E0,0E0,0E0,0E0,0E0,0E0,0E0,0E0,0E0,0E0,0E0,0E0,0E0,0E0,0E0,0E0,0E0],"parents":[2147483647,0,0,1,1,2,2,3,3,4,4,5,5,6,6,7,7,8,8,9,9,10,10,11,11,12,12,13,13,14,14,15,15,16,16,18,18,19,19,20,20,21,21,23,23,24,24,25,25,26,26,29,29,30,30,33,33,34,34,35,35,38,38,39,39,40,40,41,41,42,42,43,43,44,44,45,45,46,46,47,47,48,48,50,50,54,54,60,60,64,64,65,65,66,66,67,67,69,69,71,71,72,72,73,73,74,74,75,75,77,77,78,78,81,81,85,85,86,86,87,87,90,90,91,91,92,92,93,93,94,94,98,98,100,100,101,101,102,102,105,105,106,106,110,110,112,112,115,115,116,116,118,118,123,123,125,125,127,127,128,128,130,130,131,131,133,133,136,136,139,139,140,140,142,142,145,145,149,149,150,150],"right_children":[2,4,6,8,10,12,14,16,18,20,22,24,26,28,30,32,34,-1,36,38,40,42,-1,44,46,48,50,-1,-1,52,54,-1,-1,56,58,60,-1,-1,62,64,66,68,70,72,74,76,78,80,82,-1,84,-1,-1,-1,86,-1,-1,-1,-1,-1,88,-1,-1,-1,90,92,94,96,-1,98,-1,100,102,104,106,108,-1,110,112,-1,-1,114,-1,-1,-1,116,118,120,-1,-1,122,124,126,128,130,-1,-1,-1,132,-1,134,136,138,-1,-1,140,142,-1,-1,-1,144,-1,146,-1,-1,148,150,-1,152,-1,-1,-1,-1,154,-1,156,-1,158,160,-1,162,164,-1,166,-1,-1,168,-1,-1,170,172,-1,174,-1,-1,176,-1,-1,-1,178,180,-1,-1,-1,-1,-1,-1,-1,-1,-1,-1,-1,-1,-1,-1,-1,-1,-1,-1,-1,-1,-1,-1,-1,-1,-1,-1,-1,-1,-1,-1],"split_conditions":[1E0,2E0,5E0,1.056297E0,3E0,5.0122547E1,-3.9011705E-1,5.0574714E-1,1.0599197E1,2.930585E-1,3.420962E1,2E0,1.9148937E-1,1E1,-4.0716657E-1,6.4313275E-1,1.2791882E0,8.151876E-3,1E2,5.2068737E1,2.1869358E-1,-1.30872555E1,6.4980984E-2,1.7912219E0,-1.684447E-1,3.9164168E-1,1.14285715E-1,1.3594567E-2,-1.2364542E-2,1.2727273E-1,1E0,-0E0,2.5261331E-2,3.7209302E-1,3.3472803E0,2E0,2.3137815E-2,6.295886E-2,2.7777778E-2,7.104558E-1,2.6086956E-1,9.655172E-1,1.1724138E-1,1.830135E0,-3.0989456E1,3.7540257E0,2E0,3.7059498E1,4.264965E0,5.695365E-6,8.942131E1,1.273275E-2,-8.211686E-3,2.0356423E-3,3.103968E0,-3.5961937E-2,-0E0,-0E0,2.1886112E-2,1.2833516E-2,1.8106263E0,-0E0,3.6304977E-2,-0E0,6.9135803E-1,2.8E-1,2.0179372E-1,6.469271E-1,1.7539535E-2,4.1722412E1,4.7837988E-2,1E0,1.4578857E-1,4.379562E1,1.2765957E-1,2.1839081E-1,7.170083E-3,8.77193E-2,-2.0988362E-1,-0E0,2.1403586E-2,1.0245306E-1,7.5930697E-3,-3.6811903E-2,-0E0,2E0,-1.3313807E-2,2.173913E-2,4.9944207E-2,5.9687763E-2,7.654321E-1,3.5311005E1,2E0,2E0,1.0985256E1,1.0141679E-2,5.9155725E-2,-0E0,1E0,-0E0,3.3009708E-1,4.6153847E1,1E0,-7.631983E-3,2.2113228E-2,4.074074E-1,8.045977E-2,-0E0,-2.3347676E-2,7.35517E-3,1E2,-1.0928596E-2,2.6865673E-1,-2.0003771E-2,-0E0,8.0227137E-1,-5.7590664E-3,-1.3824177E-2,7.324295E-1,-0E0,2.9131489E-2,-0E0,3.807152E-2,2E0,1.9721856E-2,1.5906808E1,3.6211252E-2,1E0,1.0429448E1,1.704133E-3,6.546109E0,1.6790353E0,5.487166E-2,9.382716E-1,-5.069217E-2,3.6868062E-3,2.5972314E0,-3.1852596E-2,-3.7436641E-3,9.876543E-2,4.3678162E-1,-0E0,1E0,-3.8774103E-2,-2.7165278E-3,4.2896217E-1,-6.1070915E-2,-4.9468536E-2,-0E0,2.463567E0,-5.3729657E-2,-5.2178968E-2,-8.558305E-3,-4.7466527E-3,7.929127E-3,-0E0,1.96157E-2,2.3553582E-2,-4.0824492E-3,-0E0,3.8453106E-2,4.8494443E-2,3.847033E-3,1.988971E-2,3.863955E-2,-3.6436222E-2,-7.0575303E-3,-3.035779E-2,-0E0,-0E0,-2.1148069E-2,-1.203049E-3,1.784271E-2,-0E0,-2.8703801E-2,-4.030664E-2,-6.070248E-2,-5.4805633E-2,-1.9405575E-2,-4.9178354E-2,-6.652253E-2],"split_indices":[12,3,12,16,13,11,17,7,11,17,10,12,4,12,16,17,17,0,1,9,16,0,0,16,17,16,5,0,0,5,3,0,0,4,17,13,0,0,4,17,4,7,4,17,0,16,3,10,16,0,11,0,0,0,16,0,0,0,0,0,16,0,0,0,8,5,5,16,0,9,0,3,4,10,4,7,0,5,16,0,0,4,0,0,0,3,17,5,0,0,8,11,13,13,11,0,0,0,14,0,4,10,15,0,0,8,7,0,0,0,1,0,4,0,0,17,16,0,17,0,0,0,0,13,0,11,0,15,10,0,16,17,0,8,0,0,17,0,0,8,7,0,3,0,0,5,0,0,0,17,17,0,0,0,0,0,0,0,0,0,0,0,0,0,0,0,0,0,0,0,0,0,0,0,0,0,0,0,0,0,0],"split_type":[0,0,0,0,0,0,0,0,0,0,0,0,0,0,0,0,0,0,0,0,0,0,0,0,0,0,0,0,0,0,0,0,0,0,0,0,0,0,0,0,0,0,0,0,0,0,0,0,0,0,0,0,0,0,0,0,0,0,0,0,0,0,0,0,0,0,0,0,0,0,0,0,0,0,0,0,0,0,0,0,0,0,0,0,0,0,0,0,0,0,0,0,0,0,0,0,0,0,0,0,0,0,0,0,0,0,0,0,0,0,0,0,0,0,0,0,0,0,0,0,0,0,0,0,0,0,0,0,0,0,0,0,0,0,0,0,0,0,0,0,0,0,0,0,0,0,0,0,0,0,0,0,0,0,0,0,0,0,0,0,0,0,0,0,0,0,0,0,0,0,0,0,0,0,0,0,0,0,0,0,0],"sum_hessian":[1.0937278E4,5.4826504E3,5.4546284E3,8.0065186E2,4.6819985E3,2.8691567E3,2.5854717E3,2.2585486E2,5.74797E2,1.6507769E3,3.0312217E3,2.6323157E3,2.3684102E2,6.86248E1,2.5168467E3,1.0103558E2,1.24819275E2,3.869325E1,5.361037E2,3.7947934E2,1.2712975E3,1.5118462E3,1.5193755E3,1.0446522E3,1.5876636E3,1.4083177E2,9.600925E1,4.248105E1,2.6143755E1,5.766112E1,2.4591855E3,3.6551476E1,6.448411E1,5.7723278E1,6.709599E1,3.3632047E2,1.9978325E2,2.696797E2,1.09799644E2,3.1432303E2,9.569745E2,5.58212E2,9.536343E2,7.087489E2,3.3590332E2,1.1414727E2,1.4735162E3,5.0379456E1,9.045231E1,3.1250553E1,6.475869E1,2.6324152E1,3.1336967E1,3.205612E1,2.4271296E3,4.5284225E1,1.24390545E1,5.0224545E1,1.687145E1,4.7864918E1,2.8845557E2,1.4837994E1,9.496165E1,2.8893612E1,2.854294E2,5.374126E2,4.1956192E2,5.211708E2,3.704116E1,3.548944E2,5.9873987E2,5.0346072E2,2.0528818E2,5.619988E1,2.7970346E2,7.612996E1,3.8017307E1,1.4358717E2,1.3299291E3,1.4163541E1,3.6215916E1,4.496605E1,4.5486263E1,4.6383972E1,1.8374718E1,2.3031458E3,1.239838E2,1.17288925E2,1.7116663E2,2.2496277E2,6.0466652E1,2.777427E2,2.5966986E2,2.20968E2,1.9859393E2,1.4487097E1,5.0668372E2,1.9514622E1,3.353798E2,1.2667793E1,4.9079294E2,9.340803E1,1.1188014E2,3.210824E1,2.409164E1,9.4764145E1,1.849393E2,1.4093763E1,6.2036194E1,3.648097E1,1.071062E2,7.242112E1,1.2575079E3,3.0810154E1,1.4155897E1,9.0572525E1,2.2125732E3,3.9403034E1,8.4580765E1,1.4405785E1,1.0288314E2,1.5574718E1,4.4891933E1,2.2831061E2,4.94321E1,1.5013011E2,1.0953976E2,1.2658242E2,9.4385574E1,1.6278702E1,1.8231523E2,2.8742932E2,4.795045E1,3.4102277E2,1.4977017E2,5.2623447E1,4.078458E1,8.187717E1,3.000298E1,5.525076E1,3.951339E1,1.2403603E1,1.725357E2,7.329345E1,3.381275E1,7.2759326E2,5.2991473E2,6.779855E1,2.2773977E1,2.487486E2,1.9638246E3,6.2560307E1,2.202046E1,1.3613203E2,9.2178566E1,4.7228374E1,1.0290174E2,7.4107635E1,5.247478E1,1.30166645E1,8.136891E1,1.6704887E2,1.5266361E1,1.7373457E2,1.1369476E2,3.0505563E2,3.5967125E1,1.5658134E1,2.5126446E1,1.8147972E1,3.7102787E1,1.9902708E1,1.961068E1,1.9648712E1,1.52887E2,5.202742E2,2.0731903E2,1.9097787E2,5.7770706E1,1.763099E2,1.7875148E3],"tree_param":{"num_deleted":"0","num_feature":"18","num_nodes":"181","size_leaf_vector":"1"}},{"base_weights":[-1.4024788E-3,9.486953E-1,-9.5624876E-1,1.1090715E0,7.27341E-1,-7.3366714E-1,-1.202225E0,6.6046226E-1,1.1823101E0,4.0431166E-1,8.8855684E-1,-1.1220912E0,-5.438254E-1,-0E0,-1.2367414E0,2.7073017E-1,3.7159882E-2,8.085543E-1,1.2810963E0,8.4814703E-1,2.7774897E-1,3.667824E-1,9.810784E-1,-8.3994305E-1,-1.2906401E0,-6.181246E-1,1.415896E-1,1.1567993E-2,-1.1224022E-2,-0E0,-1.2670006E0,-2.834491E-3,5.268758E-1,5.60457E-2,6.6052306E-1,1.1216165E0,1.4083672E0,-0E0,9.869425E-1,8.124629E-1,1.5485933E-1,-1.3962208E-1,5.774855E-1,8.1869E-1,5.912292E-2,-3.622953E-4,-8.928669E-1,-8.088863E-3,-6.0769472E-2,-7.509045E-1,-3.5297924E-1,-5.569371E-4,3.4868845E-1,2.5840688E-3,-1.2867162E0,-0E0,3.0526057E-2,5.8811817E-2,4.4746575E-1,1.3569754E0,1.0378448E0,6.540425E-2,1.693456E-2,-0E0,4.8888166E-2,4.947977E-2,3.8967608E-3,7.641677E-2,2.1683954E-2,1.5116002E-1,-4.414716E-1,6.300333E-1,-0E0,9.964996E-1,6.6712755E-1,-4.4570036E-2,-3.640423E-1,-8.946679E-1,-5.2002364E-1,7.834029E-3,-4.1351473E-1,2.709125E-2,-0E0,-1.2932067E0,-0E0,-0E0,6.228012E-1,5.5106874E-3,6.5146744E-2,8.7715733E-1,5.4598007E-2,-2.966269E-2,2.4867901E-1,-1.049754E-3,2.6179647E-2,-3.303631E-2,-0E0,2.6292214E-1,3.9014205E-2,-0E0,1.022243E0,3.9010707E-1,4.063269E-2,-2.804934E-2,-0E0,-3.0208597E-1,-9.5932287E-1,-2.517245E-1,-6.750388E-1,-1.8710144E-1,-5.699027E-1,-6.548114E-2,-1.1821574E0,7.774359E-1,1.390276E-1,3.785984E-1,4.327837E-2,3.3219678E-3,-2.2905338E-1,-0E0,2.2050217E-2,2.1933092E-2,-0E0,5.065223E-2,5.7592696E-1,2.705128E-5,5.443929E-1,1.6927365E-2,-5.120523E-1,-4.7486898E-2,-3.5093006E-1,-3.9928988E-1,-0E0,-5.4203793E-3,-7.735447E-1,-2.7166143E-1,1.1636956E-5,-0E0,-6.348839E-1,-1.219661E0,-6.60957E-1,1.5724E-2,4.1920688E-2,2.4688018E-2,-2.7465404E-3,2.588449E-2,-0E0,-0E0,-1.5042939E-2,-5.9346864E-3,1.4581948E-2,-0E0,3.5836365E-2,-0E0,2.8295608E-2,-0E0,-3.491008E-2,-2.3938848E-2,-0E0,-2.1964654E-2,-0E0,-0E0,-3.8901255E-2,-1.6969474E-2,-0E0,-3.315418E-2,-3.8902452E-3,-5.7391092E-2,-2.792222E-2,-1.1355628E-2,-4.4222992E-2],"categories":[],"categories_nodes":[],"categories_segments":[],"categories_sizes":[],"default_left":[0,0,0,0,0,0,0,0,0,0,0,0,0,0,0,0,0,0,0,0,0,0,0,0,0,0,0,0,0,0,0,0,0,0,0,0,0,0,0,0,0,0,0,0,0,0,0,0,0,0,0,0,0,0,0,0,0,0,0,0,0,0,0,0,0,0,0,0,0,0,0,0,0,0,0,0,0,0,0,0,0,0,0,0,0,0,0,0,0,0,0,0,0,0,0,0,0,0,0,0,0,0,0,0,0,0,0,0,0,0,0,0,0,0,0,0,0,0,0,0,0,0,0,0,0,0,0,0,0,0,0,0,0,0,0,0,0,0,0,0,0,0,0,0,0,0,0,0,0,0,0,0,0,0,0,0,0,0,0,0,0,0,0,0,0,0,0,0,0,0,0],"id":5,"left_children":[1,3,5,7,9,11,13,15,17,19,21,23,25,27,29,31,-1,33,35,37,39,41,43,45,47,49,51,-1,-1,-1,53,-1,55,-1,57,59,61,-1,63,65,67,69,71,73,-1,-1,75,-1,-1,77,79,-1,81,-1,83,-1,-1,-1,85,87,89,-1,-1,-1,-1,-1,-1,91,-1,93,95,97,-1,99,101,-1,103,105,107,-1,109,-1,-1,111,-1,-1,113,-1,-1,115,-1,117,119,-1,-1,-1,-1,121,-1,-1,123,125,-1,-1,-1,127,129,131,133,135,137,-1,139,141,143,145,-1,-1,147,149,-1,-1,-1,-1,151,-1,153,-1,155,-1,157,159,-1,-1,161,163,-1,-1,165,167,169,-1,-1,-1,-1,-1,-1,-1,-1,-1,-1,-1,-1,-1,-1,-1,-1,-1,-1,-1,-1,-1,-1,-1,-1,-1,-1,-1,-1,-1,-1],"loss_changes":[9.8746E3,1.828916E2,2.859756E2,9.266431E1,1.13446045E2,2.0214722E2,1.118064E2,2.0437576E1,8.683447E1,3.824225E1,6.668262E1,3.1424072E1,1.01230835E2,4.552183E0,9.588403E1,1.3899906E1,0E0,2.4129852E1,2.679663E1,1.5508537E1,3.6136665E1,2.8105427E1,5.066333E1,1.201889E1,1.0333984E1,5.6056885E1,7.4693103E0,0E0,0E0,0E0,6.945215E1,0E0,4.7686005E0,0E0,4.8232056E1,4.095703E0,3.5112305E0,0E0,5.6996765E0,1.5140717E1,1.020048E1,7.4179235E0,4.7215424E0,1.358844E1,0E0,0E0,6.265747E0,0E0,0E0,3.059674E1,2.0410316E1,0E0,8.931167E0,0E0,1.8452637E1,0E0,0E0,0E0,2.4049706E1,8.726501E0,5.090271E0,0E0,0E0,0E0,0E0,0E0,0E0,8.857518E0,0E0,4.6056304E0,5.2930536E0,7.1491394E0,0E0,5.058136E0,2.2065735E1,0E0,3.568819E0,2.0101685E1,1.453791E1,0E0,1.5689728E1,0E0,0E0,1.7254883E1,0E0,0E0,1.3160149E1,0E0,0E0,4.71756E0,0E0,5.869445E0,8.994957E0,0E0,0E0,0E0,0E0,4.702333E0,0E0,0E0,2.9318542E0,1.1118271E1,0E0,0E0,0E0,1.24069805E1,1.951416E1,6.2013206E0,1.1100021E1,5.049115E0,1.1387627E1,0E0,1.4845703E1,3.2692032E0,7.607085E0,5.6805215E0,0E0,0E0,3.6862588E0,4.505537E0,0E0,0E0,0E0,0E0,6.9846916E0,0E0,5.0487137E0,0E0,4.9889317E0,0E0,3.9001226E0,3.737873E0,0E0,0E0,1.2143265E1,5.490987E0,0E0,0E0,9.169174E0,8.668213E0,6.564045E0,0E0,0E0,0E0,0E0,0E0,0E0,0E0,0E0,0E0,0E0,0E0,0E0,0E0,0E0,0E0,0E0,0E0,0E0,0E0,0E0,0E0,0E0,0E0,0E0,0E0,0E0,0E0,0E0,0E0,0E0],"parents":[2147483647,0,0,1,1,2,2,3,3,4,4,5,5,6,6,7,7,8,8,9,9,10,10,11,11,12,12,13,13,14,14,15,15,17,17,18,18,19,19,20,20,21,21,22,22,23,23,24,24,25,25,26,26,30,30,32,32,34,34,35,35,36,36,38,38,39,39,40,40,41,41,42,42,43,43,46,46,49,49,50,50,52,52,54,54,58,58,59,59,60,60,67,67,69,69,70,70,71,71,73,73,74,74,76,76,77,77,78,78,80,80,83,83,86,86,89,89,91,91,92,92,97,97,100,100,101,101,105,105,106,106,107,107,108,108,109,109,110,110,112,112,113,113,114,114,115,115,118,118,119,119,124,124,126,126,128,128,130,130,131,131,134,134,135,135,138,138,139,139,140,140],"right_children":[2,4,6,8,10,12,14,16,18,20,22,24,26,28,30,32,-1,34,36,38,40,42,44,46,48,50,52,-1,-1,-1,54,-1,56,-1,58,60,62,-1,64,66,68,70,72,74,-1,-1,76,-1,-1,78,80,-1,82,-1,84,-1,-1,-1,86,88,90,-1,-1,-1,-1,-1,-1,92,-1,94,96,98,-1,100,102,-1,104,106,108,-1,110,-1,-1,112,-1,-1,114,-1,-1,116,-1,118,120,-1,-1,-1,-1,122,-1,-1,124,126,-1,-1,-1,128,130,132,134,136,138,-1,140,142,144,146,-1,-1,148,150,-1,-1,-1,-1,152,-1,154,-1,156,-1,158,160,-1,-1,162,164,-1,-1,166,168,170,-1,-1,-1,-1,-1,-1,-1,-1,-1,-1,-1,-1,-1,-1,-1,-1,-1,-1,-1,-1,-1,-1,-1,-1,-1,-1,-1,-1,-1,-1],"split_conditions":[1E0,5.626614E-1,5E0,2E0,3E0,3.6666667E-1,-3.9011705E-1,1.3262424E1,2E0,2.3620169E-1,2E0,2E0,5.0122547E1,1E1,-4.0716657E-1,1.0671594E0,3.7159882E-2,3.457217E-1,3.5097E1,9.4427335E-1,5.642704E-2,1.0911859E0,4.347826E1,1E0,1E0,1.5667745E0,4.8837208E1,1.1567993E-2,-1.1224022E-2,-0E0,1E0,-2.834491E-3,1.0488667E1,5.60457E-2,2.0949721E-1,4.8336565E-1,7.733952E0,-0E0,1.1274584E1,6.0493827E-1,3.5311005E1,4.4827586E-1,1.4536422E1,-1.0471947E1,5.912292E-2,-3.622953E-4,3.0637078E0,-8.088863E-3,-6.0769472E-2,1.484407E0,-5.1808643E-1,-5.569371E-4,9.770115E-1,2.5840688E-3,8.264705E1,-0E0,3.0526057E-2,5.8811817E-2,1.5989839E1,6.170556E-1,7E0,6.540425E-2,1.693456E-2,-0E0,4.8888166E-2,4.947977E-2,3.8967608E-3,2E0,2.1683954E-2,8E0,1.434164E0,1.8733908E0,-0E0,7.220752E-1,1.5689261E0,-4.4570036E-2,2.6681095E1,2E0,2E0,7.834029E-3,2E0,2.709125E-2,-0E0,4.7036988E-1,-0E0,-0E0,1E0,5.5106874E-3,6.5146744E-2,9.4339624E-2,5.4598007E-2,7.4712646E-1,3.3617554E1,-1.049754E-3,2.6179647E-2,-3.303631E-2,-0E0,7.816092E-1,3.9014205E-2,-0E0,8.3908045E-1,5.0617284E-1,4.063269E-2,-2.804934E-2,-0E0,3.763785E-5,9.259259E-1,7.1428573E-1,-2.7009508E-1,6.666667E-1,2E0,-6.548114E-2,2.4971461E0,1.5384616E-1,2.5E-1,8.8505745E-1,4.327837E-2,3.3219678E-3,6.1764705E-1,1.3579088E0,2.2050217E-2,2.1933092E-2,-0E0,5.065223E-2,4.4170648E-2,2.705128E-5,3.7878788E0,1.6927365E-2,5.2873564E-1,-4.7486898E-2,7.3333335E-1,1E0,-0E0,-5.4203793E-3,-1.0380907E1,5.625E1,1.1636956E-5,-0E0,8.313953E-1,3.0169888E0,1.1262529E-1,1.5724E-2,4.1920688E-2,2.4688018E-2,-2.7465404E-3,2.588449E-2,-0E0,-0E0,-1.5042939E-2,-5.9346864E-3,1.4581948E-2,-0E0,3.5836365E-2,-0E0,2.8295608E-2,-0E0,-3.491008E-2,-2.3938848E-2,-0E0,-2.1964654E-2,-0E0,-0E0,-3.8901255E-2,-1.6969474E-2,-0E0,-3.315418E-2,-3.8902452E-3,-5.7391092E-2,-2.792222E-2,-1.1355628E-2,-4.4222992E-2],"split_indices":[12,6,12,3,13,6,17,11,13,17,3,12,11,12,16,16,0,17,10,16,16,16,10,3,3,16,10,0,0,0,3,0,11,0,16,17,17,0,11,8,11,7,0,0,0,0,16,0,0,17,17,0,7,0,11,0,0,0,11,16,13,0,0,0,0,0,0,13,0,13,17,16,0,16,17,0,11,3,12,0,12,0,0,6,0,0,15,0,0,4,0,7,10,0,0,0,0,7,0,0,7,8,0,0,0,5,8,6,16,8,3,0,17,4,6,7,0,0,6,16,0,0,0,0,5,0,10,0,7,0,6,15,0,0,0,10,0,0,6,16,16,0,0,0,0,0,0,0,0,0,0,0,0,0,0,0,0,0,0,0,0,0,0,0,0,0,0,0,0,0,0],"split_type":[0,0,0,0,0,0,0,0,0,0,0,0,0,0,0,0,0,0,0,0,0,0,0,0,0,0,0,0,0,0,0,0,0,0,0,0,0,0,0,0,0,0,0,0,0,0,0,0,0,0,0,0,0,0,0,0,0,0,0,0,0,0,0,0,0,0,0,0,0,0,0,0,0,0,0,0,0,0,0,0,0,0,0,0,0,0,0,0,0,0,0,0,0,0,0,0,0,0,0,0,0,0,0,0,0,0,0,0,0,0,0,0,0,0,0,0,0,0,0,0,0,0,0,0,0,0,0,0,0,0,0,0,0,0,0,0,0,0,0,0,0,0,0,0,0,0,0,0,0,0,0,0,0,0,0,0,0,0,0,0,0,0,0,0,0,0,0,0,0,0,0],"sum_hessian":[1.0878895E4,5.450623E3,5.428271E3,3.1419758E3,2.3086475E3,2.865438E3,2.5628333E3,4.5376987E2,2.688206E3,7.8139667E2,1.5272507E3,9.281537E2,1.9372844E3,6.811773E1,2.4947153E3,1.3440709E2,3.1936276E2,5.771878E2,2.111018E3,1.6172252E2,6.1967413E2,2.396118E2,1.2876389E3,3.637046E2,5.644491E2,1.7540756E3,1.832088E2,4.222654E1,2.5891188E1,5.814412E1,2.4365713E3,5.1725723E1,8.2681366E1,1.3996474E2,4.3722308E2,9.6547095E2,1.1455471E3,2.712476E1,1.3459776E2,1.0583106E2,5.138431E2,6.4335915E1,1.752759E2,8.5417426E2,4.3346472E2,2.7098347E1,3.3660623E2,1.8405853E1,5.460432E2,1.1537828E3,6.002927E2,9.410435E1,8.910445E1,3.2302708E1,2.4042686E3,2.0581656E1,6.2099712E1,1.0317128E2,3.340518E2,2.2758789E2,7.3788306E2,1.1281752E3,1.7371964E1,1.3451084E1,1.21146675E2,7.2252205E1,3.357886E1,4.2602896E2,8.7814095E1,2.581606E1,3.8519855E1,1.5868878E2,1.6587114E1,3.7177914E2,4.823951E2,2.854385E2,5.1167713E1,6.937367E2,4.6004617E2,5.3921005E1,5.4637177E2,5.5300903E1,3.3803543E1,2.3912002E3,1.3068292E1,1.01013176E2,2.330386E2,1.3908153E1,2.1367973E2,3.7701968E2,3.6086337E2,2.4877658E2,1.7725238E2,1.2439052E1,1.33770075E1,2.3103199E1,1.5416657E1,6.9081E1,8.960777E1,1.3793241E1,3.579859E2,2.2344664E2,2.5894846E2,2.6069748E1,2.5097965E1,7.679743E1,6.169393E2,1.820177E2,2.7802847E2,2.3771904E2,3.086527E2,1.0765693E3,1.314631E3,1.6812001E2,6.49186E1,5.214148E1,3.248782E2,1.5080928E2,9.79673E1,9.221805E1,8.503433E1,3.981829E1,2.9262709E1,2.9298886E2,6.499705E1,7.26012E1,1.5084544E2,1.2635007E1,6.416243E1,5.4377826E2,7.316099E1,1.09490746E2,7.252696E1,4.9658054E1,2.283704E2,1.79654E2,5.806504E1,3.2260098E1,2.763926E2,1.2146035E3,1.0002737E2,4.9558914E1,1.1856109E2,2.7671041E1,3.7247566E1,4.0104767E1,1.2036711E1,1.6622375E1,8.134493E1,6.0652958E1,3.1565092E1,1.9113663E1,4.588338E1,1.9518444E1,1.31327E2,2.7735025E1,3.6427402E1,4.625729E1,2.6903698E1,9.241374E1,1.7077005E1,2.0064575E1,2.0830583E2,1.3692819E2,4.272581E1,2.3161836E2,4.4774235E1,1.1555707E3,5.9032948E1,5.050187E1,4.95255E1],"tree_param":{"num_deleted":"0","num_feature":"18","num_nodes":"171","size_leaf_vector":"1"}},{"base_weights":[2.4677627E-3,9.166154E-1,-9.163895E-1,4.775215E-1,9.9053717E-1,-6.004679E-1,-1.0825045E0,1.5144072E-1,5.8220464E-1,7.205306E-1,1.1361917E0,-8.716276E-1,-3.827996E-1,5.7662673E-2,-1.1218698E0,-3.949939E-2,2.471152E-2,-0E0,6.123854E-1,9.183319E-1,4.7345465E-1,9.571824E-1,1.3101454E0,-7.463854E-2,-9.1730326E-1,-4.6076113E-1,-0E0,2.1022977E-1,-1.2000281E-2,1.7025577E-1,-1.1442801E0,2.6228023E-1,-2.9463515E-1,7.3447263E-1,4.057809E-1,5.8429204E-2,8.0872166E-1,9.0278924E-1,3.2627517E-1,1.122197E0,7.2300446E-1,6.262543E-2,4.717952E-2,-1.4882714E-2,2.7554736E-3,-9.388718E-1,-0E0,-6.802241E-5,-5.1660955E-1,1.1561038E-1,-2.2982703E-1,-0E0,1.4962518E-2,-0E0,3.4825005E-2,-1.1870058E0,-3.971579E-1,3.165116E-2,-2.0675415E-3,-1.9544581E-2,-0E0,2.5147593E-3,3.532619E-2,9.1077946E-4,5.012807E-1,4.718368E-1,9.3337786E-1,9.6585846E-1,-0E0,2.0931938E-1,3.4446567E-2,1.3007911E0,4.5241944E-2,4.2990603E-2,6.173342E-1,-5.010593E-2,-7.848241E-1,-9.791931E-2,-5.7156765E-1,-1.0724564E-3,3.073594E-1,-3.858216E-1,1.0970667E-3,-6.416206E-2,-1.0786318E0,-6.8293124E-1,4.9877524E-2,5.641554E-1,-0E0,7.666479E-1,9.05967E-3,4.756685E-2,5.787585E-1,4.746573E-2,-0E0,-0E0,2.9895794E-1,6.1846226E-2,1.8552648E-2,4.2295334E-1,8.4688133E-1,-8.11703E-1,-0E0,-3.9322212E-1,5.0737383E-3,-4.3735698E-1,-7.541203E-1,2.8007707E-2,-9.395861E-4,-5.430027E-1,-0E0,-1.1302949E0,-6.5469414E-1,-8.007628E-1,-0E0,-6.0131242E-3,1.8143797E-2,-0E0,2.8413894E-2,9.241189E-3,4.50797E-2,3.92941E-2,1.9215983E-1,5.78261E-3,-1.2470769E-2,-1.999695E-2,4.0331164E-1,8.8232785E-2,5.3920394E-1,-0E0,4.1146323E-2,-0E0,-3.8388178E-2,-2.5621632E-2,-0E0,-0E0,-4.633388E-1,-4.4115413E-2,-5.3086203E-1,-0E0,-3.337929E-2,-9.020235E-1,-1.1984127E0,-0E0,-7.032114E-1,-5.274209E-2,-1.8509319E-2,-0E0,2.5112774E-2,8.71352E-3,-1.1398305E-2,2.4795443E-2,8.690963E-3,-8.347699E-3,1.681164E-2,3.235867E-2,8.095913E-3,-2.2647735E-2,-0E0,-2.8079655E-2,-0E0,-6.4831837E-3,-4.3611452E-2,-2.9354662E-2,-5.6177255E-2,-3.5824798E-2,-3.8911735E-3],"categories":[],"categories_nodes":[],"categories_segments":[],"categories_sizes":[],"default_left":[0,0,0,0,0,0,0,0,0,0,0,0,0,0,0,0,0,0,0,0,0,0,0,0,0,0,0,0,0,0,0,0,0,0,0,0,0,0,0,0,0,0,0,0,0,0,0,0,0,0,0,0,0,0,0,0,0,0,0,0,0,0,0,0,0,0,0,0,0,0,0,0,0,0,0,0,0,0,0,0,0,0,0,0,0,0,0,0,0,0,0,0,0,0,0,0,0,0,0,0,0,0,0,0,0,0,0,0,0,0,0,0,0,0,0,0,0,0,0,0,0,0,0,0,0,0,0,0,0,0,0,0,0,0,0,0,0,0,0,0,0,0,0,0,0,0,0,0,0,0,0,0,0,0,0,0,0,0,0,0,0,0,0,0,0,0,0],"id":6,"left_children":[1,3,5,7,9,11,13,15,17,19,21,23,25,27,29,31,-1,-1,33,35,37,39,41,43,45,47,49,51,-1,53,55,57,59,61,63,-1,65,67,69,71,73,-1,-1,-1,-1,75,-1,-1,77,79,81,-1,-1,-1,-1,83,85,-1,-1,-1,-1,-1,-1,-1,87,89,91,93,-1,95,-1,97,-1,-1,99,-1,101,103,105,-1,107,109,-1,-1,111,113,115,117,-1,119,-1,-1,121,-1,-1,123,125,-1,-1,127,129,131,-1,133,-1,135,137,-1,-1,139,-1,141,143,145,-1,-1,-1,-1,-1,-1,-1,-1,147,-1,-1,149,151,153,155,-1,-1,-1,-1,-1,-1,-1,157,-1,159,-1,-1,161,163,-1,165,-1,-1,-1,-1,-1,-1,-1,-1,-1,-1,-1,-1,-1,-1,-1,-1,-1,-1,-1,-1,-1,-1],"loss_changes":[9.072022E3,1.6775146E2,2.7298633E2,2.3537247E1,1.7103564E2,1.0376495E2,1.628208E2,1.7586704E1,9.276855E0,7.251666E1,7.907544E1,2.51922E1,3.0156372E1,5.5699873E0,1.0351904E2,1.0658082E1,0E0,0E0,8.018723E0,2.1949036E1,4.0629166E1,4.7058716E1,6.041992E0,3.0282626E0,1.7333435E1,1.9914719E1,5.354083E0,3.036778E0,0E0,8.200835E0,9.828467E1,1.013027E1,3.0405369E0,3.4274902E0,5.989609E0,0E0,2.1756378E1,9.423553E0,2.3139214E1,7.4815674E0,5.422058E0,0E0,0E0,0E0,0E0,6.2911987E0,0E0,0E0,1.4401398E1,4.468317E0,4.5016317E0,0E0,0E0,0E0,0E0,5.472461E1,2.7413624E1,0E0,0E0,0E0,0E0,0E0,0E0,0E0,3.6311188E0,1.1811794E1,8.420593E0,8.563065E0,0E0,9.239838E0,0E0,3.7018433E0,0E0,0E0,1.3140366E1,0E0,5.789276E0,7.678284E0,9.942566E0,0E0,8.9876795E0,4.3815603E0,0E0,0E0,3.5621826E1,9.306686E0,5.75606E0,4.472969E0,0E0,4.8440895E0,0E0,0E0,8.048752E0,0E0,0E0,4.9172893E0,1.266086E1,0E0,0E0,7.074383E0,4.5993347E0,4.786316E0,0E0,3.7084093E0,0E0,4.7417984E0,3.723587E0,0E0,0E0,3.0721474E0,0E0,1.6130615E1,7.542801E0,5.8948746E0,0E0,0E0,0E0,0E0,0E0,0E0,0E0,0E0,5.4827747E0,0E0,0E0,3.8553839E0,3.8443375E0,7.011956E0,6.394287E0,0E0,0E0,0E0,0E0,0E0,0E0,0E0,5.5675125E0,0E0,6.574806E0,0E0,0E0,9.989563E0,5.6279297E0,0E0,6.3040466E0,0E0,0E0,0E0,0E0,0E0,0E0,0E0,0E0,0E0,0E0,0E0,0E0,0E0,0E0,0E0,0E0,0E0,0E0,0E0,0E0,0E0,0E0],"parents":[2147483647,0,0,1,1,2,2,3,3,4,4,5,5,6,6,7,7,8,8,9,9,10,10,11,11,12,12,13,13,14,14,15,15,18,18,19,19,20,20,21,21,22,22,23,23,24,24,25,25,26,26,27,27,29,29,30,30,31,31,32,32,33,33,34,34,36,36,37,37,38,38,39,39,40,40,45,45,48,48,49,49,50,50,55,55,56,56,64,64,65,65,66,66,67,67,69,69,71,71,74,74,76,76,77,77,78,78,80,80,81,81,84,84,85,85,86,86,87,87,89,89,92,92,95,95,96,96,99,99,100,100,101,101,103,103,105,105,106,106,109,109,111,111,112,112,113,113,122,122,125,125,126,126,127,127,128,128,136,136,138,138,141,141,142,142,144,144],"right_children":[2,4,6,8,10,12,14,16,18,20,22,24,26,28,30,32,-1,-1,34,36,38,40,42,44,46,48,50,52,-1,54,56,58,60,62,64,-1,66,68,70,72,74,-1,-1,-1,-1,76,-1,-1,78,80,82,-1,-1,-1,-1,84,86,-1,-1,-1,-1,-1,-1,-1,88,90,92,94,-1,96,-1,98,-1,-1,100,-1,102,104,106,-1,108,110,-1,-1,112,114,116,118,-1,120,-1,-1,122,-1,-1,124,126,-1,-1,128,130,132,-1,134,-1,136,138,-1,-1,140,-1,142,144,146,-1,-1,-1,-1,-1,-1,-1,-1,148,-1,-1,150,152,154,156,-1,-1,-1,-1,-1,-1,-1,158,-1,160,-1,-1,162,164,-1,166,-1,-1,-1,-1,-1,-1,-1,-1,-1,-1,-1,-1,-1,-1,-1,-1,-1,-1,-1,-1,-1,-1],"split_conditions":[1E0,2E0,3E0,8.247102E-1,3E0,4.7368422E-1,-3.9011705E-1,7E0,1.0539262E1,5.301205E-1,3.420962E1,1E0,2.6360786E0,1E1,1E0,4.7036988E-1,2.471152E-2,-0E0,1E2,2.930585E-1,2.8416985E-1,5.989978E-1,7.6E-1,4.619984E1,8.942131E1,-1.89235E-1,1.4578857E-1,5.1282052E-2,-1.2000281E-2,-1.0041267E1,4.8066475E1,5.4022986E-1,3.232831E1,9.3108505E-1,7.462686E-2,5.8429204E-2,1.55329075E1,9.409005E-1,3.5311005E1,-4.3903756E0,-5.290493E0,6.262543E-2,4.717952E-2,-1.4882714E-2,2.7554736E-3,2.5E-1,-0E0,-6.802241E-5,2E0,4.4444446E-2,4.95106E1,-0E0,1.4962518E-2,-0E0,3.4825005E-2,3.746902E-1,6.981132E-1,3.165116E-2,-2.0675415E-3,-1.9544581E-2,-0E0,2.5147593E-3,3.532619E-2,9.1077946E-4,7.0731705E-1,2.6086956E-1,1E0,-3.7209885E0,-0E0,7.6644677E-1,3.4446567E-2,9.54023E-1,4.5241944E-2,4.2990603E-2,1.5689261E0,-5.010593E-2,4.4544263E0,2.6760563E1,2E0,-1.0724564E-3,9.0804595E-1,4.691358E-1,1.0970667E-3,-6.416206E-2,2.2470844E0,8.942131E1,4.14834E0,7.692308E-2,-0E0,2.5E1,9.05967E-3,4.756685E-2,2.6436782E-1,4.746573E-2,-0E0,-3.3861568E0,1.0453274E1,6.1846226E-2,1.8552648E-2,5E0,4.2105446E1,-4.6804985E1,-0E0,7.906977E-1,5.0737383E-3,-3.611951E1,6.818182E-1,2.8007707E-2,-9.395861E-4,-6.4512315E0,-0E0,5E0,1E2,4.054054E-1,-0E0,-6.0131242E-3,1.8143797E-2,-0E0,2.8413894E-2,9.241189E-3,4.50797E-2,3.92941E-2,2E0,5.78261E-3,-1.2470769E-2,4.50761E1,7.432432E-1,5.925926E-1,1.613769E1,-0E0,4.1146323E-2,-0E0,-3.8388178E-2,-2.5621632E-2,-0E0,-0E0,9.7530866E-1,-4.4115413E-2,8.888889E-1,-0E0,-3.337929E-2,-1.8843306E1,2E0,-0E0,8.5915494E-1,-5.274209E-2,-1.8509319E-2,-0E0,2.5112774E-2,8.71352E-3,-1.1398305E-2,2.4795443E-2,8.690963E-3,-8.347699E-3,1.681164E-2,3.235867E-2,8.095913E-3,-2.2647735E-2,-0E0,-2.8079655E-2,-0E0,-6.4831837E-3,-4.3611452E-2,-2.9354662E-2,-5.6177255E-2,-3.5824798E-2,-3.8911735E-3],"split_indices":[12,3,12,17,13,6,17,13,11,6,10,3,17,12,3,6,0,0,1,17,17,6,6,9,11,17,4,4,0,0,11,7,10,17,4,0,11,6,11,2,2,0,0,0,0,6,0,0,3,4,0,0,0,0,0,6,6,0,0,0,0,0,0,0,6,6,15,2,0,17,0,7,0,0,17,0,17,10,12,0,7,8,0,0,17,11,17,6,0,10,0,0,6,0,0,2,0,0,0,13,9,0,0,6,0,0,6,0,0,2,0,12,1,6,0,0,0,0,0,0,0,0,13,0,0,9,6,8,0,0,0,0,0,0,0,0,8,0,8,0,0,2,3,0,6,0,0,0,0,0,0,0,0,0,0,0,0,0,0,0,0,0,0,0,0,0,0],"split_type":[0,0,0,0,0,0,0,0,0,0,0,0,0,0,0,0,0,0,0,0,0,0,0,0,0,0,0,0,0,0,0,0,0,0,0,0,0,0,0,0,0,0,0,0,0,0,0,0,0,0,0,0,0,0,0,0,0,0,0,0,0,0,0,0,0,0,0,0,0,0,0,0,0,0,0,0,0,0,0,0,0,0,0,0,0,0,0,0,0,0,0,0,0,0,0,0,0,0,0,0,0,0,0,0,0,0,0,0,0,0,0,0,0,0,0,0,0,0,0,0,0,0,0,0,0,0,0,0,0,0,0,0,0,0,0,0,0,0,0,0,0,0,0,0,0,0,0,0,0,0,0,0,0,0,0,0,0,0,0,0,0,0,0,0,0,0,0],"sum_hessian":[1.0794596E4,5.4136553E3,5.380941E3,7.920676E2,4.6215874E3,1.8683953E3,3.5125454E3,2.0478964E2,5.87278E2,1.636487E3,2.9851006E3,8.1876874E2,1.0496266E3,1.1331765E2,3.3992278E3,1.3070152E2,7.408813E1,3.2001873E1,5.552761E2,8.942536E2,7.422334E2,1.4933748E3,1.491726E3,5.0202557E1,7.6856616E2,8.656268E2,1.8399977E2,8.693204E1,2.6385618E1,5.4157436E1,3.3450703E3,5.1657135E1,7.904439E1,3.305065E2,2.247696E2,1.9617961E2,6.98074E2,1.7778131E2,5.644521E2,8.5819104E2,6.351837E2,1.251093E3,2.406329E2,2.810942E1,2.2093136E1,7.531919E2,1.5374269E1,1.0301672E2,7.6261005E2,1.1549375E2,6.850601E1,2.3375008E1,6.3557026E1,3.98034E1,1.4354034E1,3.1567393E3,1.8833119E2,2.6406073E1,2.5251062E1,5.354234E1,2.5502048E1,2.168284E1,3.0882367E2,5.473746E1,1.7003214E2,2.0216183E2,4.9591214E2,1.6505685E2,1.2724457E1,4.5366226E2,1.10789856E2,3.528383E2,5.0535272E2,1.9061327E2,4.4457043E2,3.5948065E2,3.9371127E2,9.904419E1,6.6356586E2,5.4673916E1,6.081984E1,5.260735E1,1.5898664E1,1.0638483E3,2.0928909E3,1.20173256E2,6.8157936E1,1.4504282E2,2.498933E1,8.711394E1,1.150479E2,3.733841E2,1.2252806E2,1.5283522E2,1.2221642E1,1.2936026E2,3.2430197E2,3.3107913E2,2.1759172E1,2.5593736E2,1.8863307E2,3.76666E2,1.7045286E1,4.8922638E1,5.012155E1,4.024783E2,2.6108755E2,3.7693016E1,2.3126822E1,3.998381E1,1.262354E1,1.8516576E3,2.4123326E2,1.0113209E2,1.904117E1,3.7194595E1,3.0963345E1,1.2344036E1,1.3269878E2,3.1103262E1,5.6010677E1,6.2762768E1,5.976529E1,8.3756065E1,4.56042E1,6.9758644E1,2.5454333E2,7.7395226E1,1.7854213E2,1.3482699E1,1.7515038E2,1.234015E1,3.6432584E2,3.5012547E1,1.3910092E1,2.2101116E1,3.803772E2,1.20989784E2,1.4009776E2,1.2932276E1,2.7051535E1,4.5042368E2,1.4012339E3,1.7272001E1,2.2396126E2,4.5282692E1,5.5849392E1,3.6414406E1,2.3350883E1,2.6152184E1,4.360646E1,1.4064981E2,1.1389353E2,3.136928E1,4.6025948E1,1.1273974E2,6.580239E1,3.607706E2,1.9606606E1,1.23328926E2,1.6768833E1,3.1152637E1,4.1927106E2,6.1003212E1,1.3402307E3,1.927269E2,3.1234362E1],"tree_param":{"num_deleted":"0","num_feature":"18","num_nodes":"167","size_leaf_vector":"1"}},{"base_weights":[3.1137138E-3,8.842009E-1,-8.818496E-1,4.5758393E-1,9.5732224E-1,-5.729457E-1,-1.0443804E0,3.9893133E-3,6.2602544E-1,5.806301E-1,1.0578676E0,-8.3613807E-1,-3.6277878E-1,7.055462E-2,-1.0828102E0,2.4161156E-1,-3.1594905E-1,7.173304E-1,2.043072E-2,8.156405E-1,3.5702562E-1,1.1909076E0,8.459737E-1,-6.3944995E-2,-8.7877876E-1,-4.997814E-1,-7.3638804E-2,-1.0790485E-2,1.3545501E-2,-1.4240332E-1,-1.1243693E0,3.1311262E-2,1.0273258E-2,-4.9938852E-1,-0E0,2.9899913E-1,8.1895405E-1,5.3277445E-1,4.434796E-2,9.1233265E-1,2.1815503E-1,1.3744086E0,1.1170065E0,1.077429E0,7.323641E-1,-3.1017852E-1,3.5112007E-3,-8.987018E-1,-0E0,-6.235957E-1,1.48832565E-2,-1.5973903E-1,1.2602341E-1,1.3481998E-1,-3.8516104E-1,1.2940519E-1,-1.1468693E0,1.8666726E-2,-1.7124136E-1,-3.2089774E-2,-0E0,4.8210487E-1,-0E0,1.825563E-1,4.1047107E-2,4.343204E-2,3.1512582E-1,4.9090307E-2,1.14297254E-4,8.27951E-1,6.914225E-2,2.263058E-3,6.511165E-2,1.3235626E0,1.0168277E0,5.455918E-2,6.7616737E-1,5.4975927E-1,9.5793813E-1,-2.6756907E-2,-0E0,-7.5710607E-1,-4.9750317E-2,-6.2740077E-3,-6.7676336E-1,1.4084784E-2,-1.0513281E-1,-3.216977E-1,1.5711074E-4,2.6233098E-1,-2.335158E-3,-9.197766E-3,3.4964153E-1,-4.8693997E-1,-0E0,-2.8852167E-4,3.275777E-2,-1.3668941E0,-1.0525069E0,-0E0,-1.6001964E-2,-0E0,2.8665146E-2,-1.45642385E-2,1.7616004E-2,-0E0,2.1743255E-2,4.3354888E-2,8.643544E-2,4.7049377E-2,-0E0,-0E0,1.8355386E-2,-0E0,6.2446464E-2,7.706059E-1,5.1149365E-2,-0E0,3.6888342E-2,3.4740068E-2,4.2324197E-1,4.9948838E-2,6.3201606E-1,-8.004612E-1,-5.9521967E-3,-7.2278875E-1,-8.405613E-3,-3.1743655E-1,3.169954E-3,-0E0,-3.9555654E-1,4.0882823E-1,-0E0,2.607124E-2,-0E0,-2.7845597E-2,-0E0,-6.3487604E-2,-8.175035E-3,-1.0913752E0,-4.3105933E-1,-8.235364E-3,1.9404155E-1,9.536767E-2,-1.1976732E-1,2.1466868E-1,4.251062E-2,-0E0,4.573558E-1,-0E0,3.4683492E-2,-4.195094E-2,-4.9804455E-1,-5.7029843E-1,-4.1998427E-2,-2.2079825E-2,-0E0,-0E0,-5.2320606E-1,2.7264014E-2,-0E0,-1.1070756E0,-7.1194964E-3,-2.4553291E-2,-0E0,-5.152011E-4,2.0752426E-2,1.6523534E-2,-0E0,-1.5205714E-2,-0E0,-0E0,1.783465E-2,2.5855193E-2,7.350796E-3,-1.1737343E-2,-3.5518803E-2,-3.392319E-2,-1.2342108E-2,-2.8013786E-2,-0E0,-2.524752E-2,-5.2142926E-2],"categories":[],"categories_nodes":[],"categories_segments":[],"categories_sizes":[],"default_left":[0,0,0,0,0,0,0,0,0,0,0,0,0,0,0,0,0,0,0,0,0,0,0,0,0,0,0,0,0,0,0,0,0,0,0,0,0,0,0,0,0,0,0,0,0,0,0,0,0,0,0,0,0,0,0,0,0,0,0,0,0,0,0,0,0,0,0,0,0,0,0,0,0,0,0,0,0,0,0,0,0,0,0,0,0,0,0,0,0,0,0,0,0,0,0,0,0,0,0,0,0,0,0,0,0,0,0,0,0,0,0,0,0,0,0,0,0,0,0,0,0,0,0,0,0,0,0,0,0,0,0,0,0,0,0,0,0,0,0,0,0,0,0,0,0,0,0,0,0,0,0,0,0,0,0,0,0,0,0,0,0,0,0,0,0,0,0,0,0,0,0,0,0,0,0,0,0,0,0,0,0,0,0],"id":7,"left_children":[1,3,5,7,9,11,13,15,17,19,21,23,25,27,29,31,33,35,-1,37,39,41,43,45,47,49,51,-1,-1,53,55,-1,57,59,-1,61,63,65,-1,67,69,71,73,75,77,79,-1,81,-1,83,85,87,89,91,93,95,97,-1,99,-1,-1,101,103,105,-1,-1,107,-1,-1,109,111,-1,-1,113,115,-1,117,119,121,-1,-1,123,-1,-1,125,-1,127,129,-1,131,-1,-1,133,135,-1,-1,-1,137,139,-1,-1,-1,-1,-1,-1,-1,-1,-1,141,-1,-1,143,-1,-1,-1,145,-1,-1,-1,-1,147,-1,149,151,-1,153,-1,155,-1,-1,157,159,-1,-1,-1,-1,-1,-1,-1,161,163,-1,165,167,169,171,-1,-1,173,-1,-1,-1,175,177,-1,-1,-1,-1,179,-1,-1,181,-1,-1,-1,-1,-1,-1,-1,-1,-1,-1,-1,-1,-1,-1,-1,-1,-1,-1,-1,-1,-1],"loss_changes":[8.36984E3,1.6015576E2,2.5963818E2,5.8404617E1,1.6430518E2,9.662445E1,1.5454858E2,1.7173767E1,3.4195251E0,4.538269E1,8.938916E1,2.2364319E1,3.8864227E1,8.314305E0,1.25934814E2,1.1051685E1,5.856822E0,9.658112E0,0E0,1.1059998E1,3.421618E1,1.3940918E1,2.6625366E1,2.9068415E0,1.4913635E1,4.7475403E1,6.256152E0,0E0,0E0,1.1459483E1,9.6289795E1,0E0,8.546294E0,4.980459E0,0E0,5.0194445E0,7.538574E0,9.140278E0,0E0,8.511337E0,3.434084E1,2.3821411E1,1.8476807E1,8.274963E0,3.1564636E1,3.1125572E0,0E0,8.504211E0,0E0,1.0860565E1,5.6013002E0,8.399889E0,3.2095032E0,5.4783173E0,4.609598E0,7.64532E0,5.083789E1,0E0,3.0636458E0,0E0,0E0,3.401187E0,4.3136973E0,3.9065242E0,0E0,0E0,1.3232286E1,0E0,0E0,1.0185299E1,8.358426E0,0E0,0E0,1.9614868E1,1.4254761E1,0E0,7.5221024E0,8.02301E0,7.4031067E0,0E0,0E0,7.5836945E0,0E0,0E0,7.025238E0,0E0,4.3073697E0,3.6120749E0,0E0,4.1919274E0,0E0,0E0,3.832306E0,4.217594E0,0E0,0E0,0E0,4.260254E0,4.6118652E1,0E0,0E0,0E0,0E0,0E0,0E0,0E0,0E0,0E0,3.0638714E0,0E0,0E0,3.3706613E0,0E0,0E0,0E0,2.1756302E1,0E0,0E0,0E0,0E0,6.520874E0,0E0,7.9786186E0,5.868805E0,0E0,4.808899E0,0E0,3.0597167E0,0E0,0E0,7.2024994E0,4.567031E0,0E0,0E0,0E0,0E0,0E0,0E0,0E0,2.4814209E1,7.7659264E0,0E0,6.5268703E0,4.9844007E0,4.5749035E0,3.844266E0,0E0,0E0,7.011978E0,0E0,0E0,0E0,3.1549911E0,8.516594E0,0E0,0E0,0E0,0E0,4.5008316E0,0E0,0E0,1.8943604E1,0E0,0E0,0E0,0E0,0E0,0E0,0E0,0E0,0E0,0E0,0E0,0E0,0E0,0E0,0E0,0E0,0E0,0E0,0E0,0E0,0E0],"parents":[2147483647,0,0,1,1,2,2,3,3,4,4,5,5,6,6,7,7,8,8,9,9,10,10,11,11,12,12,13,13,14,14,15,15,16,16,17,17,19,19,20,20,21,21,22,22,23,23,24,24,25,25,26,26,29,29,30,30,32,32,33,33,35,35,36,36,37,37,39,39,40,40,41,41,42,42,43,43,44,44,45,45,47,47,49,49,50,50,51,51,52,52,53,53,54,54,55,55,56,56,58,58,61,61,62,62,63,63,66,66,69,69,70,70,73,73,74,74,76,76,77,77,78,78,81,81,84,84,86,86,87,87,89,89,92,92,93,93,97,97,98,98,108,108,111,111,115,115,120,120,122,122,123,123,125,125,127,127,130,130,131,131,139,139,140,140,142,142,143,143,144,144,145,145,148,148,152,152,153,153,158,158,161,161],"right_children":[2,4,6,8,10,12,14,16,18,20,22,24,26,28,30,32,34,36,-1,38,40,42,44,46,48,50,52,-1,-1,54,56,-1,58,60,-1,62,64,66,-1,68,70,72,74,76,78,80,-1,82,-1,84,86,88,90,92,94,96,98,-1,100,-1,-1,102,104,106,-1,-1,108,-1,-1,110,112,-1,-1,114,116,-1,118,120,122,-1,-1,124,-1,-1,126,-1,128,130,-1,132,-1,-1,134,136,-1,-1,-1,138,140,-1,-1,-1,-1,-1,-1,-1,-1,-1,142,-1,-1,144,-1,-1,-1,146,-1,-1,-1,-1,148,-1,150,152,-1,154,-1,156,-1,-1,158,160,-1,-1,-1,-1,-1,-1,-1,162,164,-1,166,168,170,172,-1,-1,174,-1,-1,-1,176,178,-1,-1,-1,-1,180,-1,-1,182,-1,-1,-1,-1,-1,-1,-1,-1,-1,-1,-1,-1,-1,-1,-1,-1,-1,-1,-1,-1,-1],"split_conditions":[1E0,2E0,3E0,1.056297E0,2E0,4.7036988E-1,-3.9011705E-1,6.0465115E-1,1E2,4.7368422E-1,5.9127283E-1,1E0,1.7912219E0,3.3514957E0,-2.7009508E-1,3.3333334E-1,6E0,1.4191208E0,2.043072E-2,1.7543056E1,1.18470654E-1,4.8336565E-1,-5.4078746E0,4.619984E1,8.942131E1,2.6360786E0,4.4968443E0,-1.0790485E-2,1.3545501E-2,-5.753713E-1,1E0,3.1311262E-2,4.3391716E1,1.1080022E0,-0E0,7.7011496E-1,2E0,3.3739942E-1,4.434796E-2,5.4320427E1,3.8266525E-2,6.170556E-1,4.801182E-1,8.8602495E-1,1.754386E0,2.2029374E0,3.5112007E-3,2E0,-0E0,2E0,-1.3927576E-1,4.074074E-1,5.0160866E1,3.297776E1,4.8513348E1,-1.0041267E1,3.2342717E-1,1.8666726E-2,2.8E-1,-3.2089774E-2,-0E0,2.1839081E-1,1.6977226E0,1.7356647E0,4.1047107E-2,4.343204E-2,2.1869358E-1,4.9090307E-2,1.14297254E-4,8.3870965E-1,3.5311005E1,2.263058E-3,6.511165E-2,6.0076463E-1,4E0,5.455918E-2,3E0,-3.3505752E0,1.1059371E0,-2.6756907E-2,-0E0,3.7735848E0,-4.9750317E-2,-6.2740077E-3,9.259259E-1,1.4084784E-2,1.7560975E-1,2E0,1.5711074E-4,8.540137E0,-2.335158E-3,-9.197766E-3,1.875E-1,1.7900558E-1,-0E0,-2.8852167E-4,3.275777E-2,5.896265E0,3.153155E0,-0E0,-1.6001964E-2,-0E0,2.8665146E-2,-1.45642385E-2,1.7616004E-2,-0E0,2.1743255E-2,4.3354888E-2,1.20472096E-1,4.7049377E-2,-0E0,1.7452036E1,1.8355386E-2,-0E0,6.2446464E-2,1.4341826E1,5.1149365E-2,-0E0,3.6888342E-2,3.4740068E-2,5.908138E-1,4.9948838E-2,4.2105446E1,1.8331264E0,-5.9521967E-3,2E0,-8.405613E-3,9.939676E-1,3.169954E-3,-0E0,5.6E-1,2.0179372E-1,-0E0,2.607124E-2,-0E0,-2.7845597E-2,-0E0,-6.3487604E-2,-8.175035E-3,4.7213902E0,5.0122547E1,-8.235364E-3,2.972973E-1,3.678161E-1,4.752365E1,1.0427829E0,4.251062E-2,-0E0,6.993007E-1,-0E0,3.4683492E-2,-4.195094E-2,-6.3130193E0,1.2791882E0,-4.1998427E-2,-2.2079825E-2,-0E0,-0E0,5.4890747E1,2.7264014E-2,-0E0,2E0,-7.1194964E-3,-2.4553291E-2,-0E0,-5.152011E-4,2.0752426E-2,1.6523534E-2,-0E0,-1.5205714E-2,-0E0,-0E0,1.783465E-2,2.5855193E-2,7.350796E-3,-1.1737343E-2,-3.5518803E-2,-3.392319E-2,-1.2342108E-2,-2.8013786E-2,-0E0,-2.524752E-2,-5.2142926E-2],"split_indices":[12,3,12,16,13,6,17,6,1,6,6,3,16,16,16,7,13,16,0,11,17,17,2,9,11,17,16,0,0,16,3,0,9,17,0,7,13,17,0,9,16,16,16,17,17,16,0,12,0,3,16,8,9,11,9,0,6,0,6,0,0,7,17,17,0,0,16,0,0,6,11,0,0,17,13,0,13,2,16,0,0,17,0,0,8,0,5,3,0,16,0,0,5,4,0,0,0,16,16,0,0,0,0,0,0,0,0,0,4,0,0,11,0,0,0,11,0,0,0,0,17,0,9,16,0,12,0,16,0,0,6,5,0,0,0,0,0,0,0,17,11,0,5,7,9,16,0,0,16,0,0,0,2,17,0,0,0,0,9,0,0,3,0,0,0,0,0,0,0,0,0,0,0,0,0,0,0,0,0,0,0,0,0],"split_type":[0,0,0,0,0,0,0,0,0,0,0,0,0,0,0,0,0,0,0,0,0,0,0,0,0,0,0,0,0,0,0,0,0,0,0,0,0,0,0,0,0,0,0,0,0,0,0,0,0,0,0,0,0,0,0,0,0,0,0,0,0,0,0,0,0,0,0,0,0,0,0,0,0,0,0,0,0,0,0,0,0,0,0,0,0,0,0,0,0,0,0,0,0,0,0,0,0,0,0,0,0,0,0,0,0,0,0,0,0,0,0,0,0,0,0,0,0,0,0,0,0,0,0,0,0,0,0,0,0,0,0,0,0,0,0,0,0,0,0,0,0,0,0,0,0,0,0,0,0,0,0,0,0,0,0,0,0,0,0,0,0,0,0,0,0,0,0,0,0,0,0,0,0,0,0,0,0,0,0,0,0,0,0],"sum_hessian":[1.072847E4,5.37859E3,5.3498794E3,7.9919025E2,4.5794E3,1.858603E3,3.4912766E3,2.2454329E2,5.74647E2,9.784852E2,3.6009146E3,8.1174E2,1.046863E3,1.1229635E2,3.3789802E3,1.3742789E2,8.7115395E1,3.6082764E2,2.1381932E2,4.6339514E2,5.150901E2,2.1906118E3,1.4103029E3,4.8450962E1,7.63289E2,6.981747E2,3.4868842E2,3.8814453E1,7.34819E1,1.481903E2,3.23079E3,3.8754227E1,9.867366E1,5.6615833E1,3.0499563E1,8.152141E1,2.7930624E2,1.7350597E2,2.8988916E2,9.324849E1,4.218416E2,5.965783E2,1.5940334E3,4.430243E2,9.6727856E2,2.8092665E1,2.03583E1,7.481599E2,1.5129089E1,5.694272E2,1.2874751E2,2.5998138E2,8.870701E1,6.1021526E1,8.7168785E1,5.314365E1,3.1776462E3,3.7859047E1,6.0814613E1,3.7974575E1,1.8641256E1,5.1168343E1,3.0353062E1,3.5806557E1,2.4349968E2,4.957469E1,1.2393127E2,7.511253E1,1.813595E1,7.424004E1,3.4760156E2,2.0421875E1,5.7615643E2,4.941859E2,1.0998475E3,3.3659332E2,1.0643096E2,5.512246E2,4.1605396E2,1.5175111E1,1.2917553E1,4.422967E2,3.0586322E2,6.544737E1,5.039798E2,4.7397606E1,8.13499E1,1.430702E2,1.1691119E2,6.3843575E1,2.4863438E1,1.5649725E1,4.5371803E1,7.289279E1,1.4275991E1,3.9061382E1,1.4082269E1,9.275302E2,2.250116E3,2.2817444E1,3.799717E1,1.2805557E1,3.8362785E1,1.8071466E1,1.2281596E1,1.5367499E1,2.0439054E1,2.5419855E1,9.851141E1,5.7591637E1,1.6648403E1,2.872653E2,6.033627E1,1.2253212E1,4.8193268E2,3.228057E2,7.770419E2,1.9594807E1,8.683615E1,1.9161684E2,3.5960776E2,2.8508408E2,1.3096988E2,4.06197E2,3.6099724E1,4.513948E2,5.258497E1,4.7355328E1,3.399457E1,2.6336536E1,1.16733665E2,4.9661236E1,1.4182337E1,2.7506313E1,1.7865488E1,5.7862633E1,1.5030163E1,9.1486127E2,1.266894E1,2.1087017E3,1.4141438E2,1.5658677E1,8.285274E1,1.5581233E2,1.3145296E2,7.7229256E1,2.4557642E2,2.0887087E1,3.3872067E2,2.5400919E1,1.0556896E2,2.8256915E2,1.2362782E2,2.6942874E2,1.819661E2,3.248197E1,1.4873355E1,2.4943062E1,9.17906E1,3.5240646E1,1.4420591E1,2.0686438E3,4.0057922E1,1.1889672E2,2.2517662E1,3.7678802E1,4.5173935E1,4.708967E1,1.0872267E2,5.6811256E1,7.46417E1,2.9816706E1,4.741255E1,2.3796451E2,1.0075615E2,7.713472E1,4.64931E1,1.6157915E2,1.0784958E2,7.94107E1,1.237991E1,9.753225E1,1.9711115E3],"tree_param":{"num_deleted":"0","num_feature":"18","num_nodes":"183","size_leaf_vector":"1"}},{"base_weights":[2.7699524E-3,8.488224E-1,-8.479027E-1,9.9639696E-1,6.477636E-1,-6.476955E-1,-1.0721675E0,7.044508E-1,1.0728573E0,3.609475E-1,7.927621E-1,-1.0120579E0,-4.8249152E-1,4.2503965E-3,-1.1041119E0,5.486936E-2,6.1177975E-1,1.3070005E0,9.9217683E-1,5.247005E-1,6.949099E-2,6.529601E-1,4.930928E-2,-7.4052775E-1,-5.4239623E-2,-5.451823E-1,1.00064725E-1,1.1151528E-2,-9.325184E-3,-0E0,-1.1322995E0,1.1390489E0,4.8745084E-1,1.3387134E0,-0E0,1.2739677E0,8.975452E-1,4.3029156E-2,3.833281E-1,-0E0,3.5934803E-1,5.303964E-1,8.650262E-1,-8.302396E-1,-2.0871322E-1,-6.60398E-1,-2.670038E-1,-5.4637797E-2,2.5592417E-1,-1.1573514E0,-6.72369E-1,8.927411E-3,5.8303703E-2,7.490678E-1,3.1949022E-1,1.5477081E-2,6.281306E-2,-0E0,1.3050833E0,6.0279363E-1,9.793253E-1,8.4690094E-1,2.2952148E-1,-2.2061698E-1,8.041308E-2,-0E0,2.4755385E-2,4.4363534E-1,4.097067E-2,9.5634085E-1,4.440984E-1,-4.1265454E-2,-1.4400837E-2,-1.7530024E-2,-0E0,-7.9710615E-1,-4.5411402E-1,8.95295E-3,-3.28702E-1,-1.6728401E-2,3.4612156E-3,1.5820077E-2,-0E0,-5.9631415E-2,-1.0621527E0,-7.9013485E-1,-5.0927857E-3,3.711239E-2,-0E0,4.1457117E-1,-0E0,7.3021706E-3,6.1315365E-2,3.9434835E-2,3.4408164E-1,4.5655612E-2,3.5868436E-3,5.887648E-3,4.9095735E-2,-0E0,3.4806925E-1,-3.9477405E-1,-0E0,1.809621E-1,-6.9325077E-3,6.25288E-1,2.5121993E-1,4.6778984E-2,2.395689E-3,-0E0,2.9214442E-2,-4.390146E-2,-5.785801E-1,-1.9932711E-1,-6.1052287E-1,-1.283432E-1,-4.6131593E-1,-5.0874826E-2,-5.5409855E-1,-4.001178E-2,-0E0,1.8237476E-1,2.8889414E-2,1.9023455E-3,4.8795375E-1,2.4315962E-1,-1.7565245E-2,2.298126E-2,1.490624E-3,-0E0,-3.2253493E-2,-0E0,3.778513E-1,6.6317576E-1,-0E0,1.8085415E-2,3.683863E-1,-7.2073025E-1,-2.7779984E-1,-2.90077E-1,-0E0,-1.2083282E-3,-7.103306E-1,-9.333005E-3,5.9706294E-3,-5.2986974E-1,-0E0,-8.14269E-3,-8.337481E-1,-0E0,1.5465799E-2,-1.4586451E-2,1.6329773E-2,2.9957816E-2,-0E0,2.1679588E-2,-1.7137035E-3,-2.4831811E-2,1.073307E-2,2.2922881E-2,-0E0,-0E0,3.2156322E-2,-1.3138148E-3,2.1572778E-2,1.6160856E-3,2.3835862E-2,-0E0,-3.534072E-2,-1.8072205E-2,-0E0,-0E0,-1.8424083E-2,-0E0,-3.5870742E-2,-2.6784288E-2,-0E0,-0E0,-4.614E-2],"categories":[],"categories_nodes":[],"categories_segments":[],"categories_sizes":[],"default_left":[0,0,0,0,0,0,0,0,0,0,0,0,0,0,0,0,0,0,0,0,0,0,0,0,0,0,0,0,0,0,0,0,0,0,0,0,0,0,0,0,0,0,0,0,0,0,0,0,0,0,0,0,0,0,0,0,0,0,0,0,0,0,0,0,0,0,0,0,0,0,0,0,0,0,0,0,0,0,0,0,0,0,0,0,0,0,0,0,0,0,0,0,0,0,0,0,0,0,0,0,0,0,0,0,0,0,0,0,0,0,0,0,0,0,0,0,0,0,0,0,0,0,0,0,0,0,0,0,0,0,0,0,0,0,0,0,0,0,0,0,0,0,0,0,0,0,0,0,0,0,0,0,0,0,0,0,0,0,0,0,0,0,0,0,0,0,0,0,0,0,0,0,0,0,0,0,0,0,0],"id":8,"left_children":[1,3,5,7,9,11,13,15,17,19,21,23,25,27,29,-1,31,33,35,37,39,41,-1,43,-1,45,47,-1,-1,-1,49,51,53,55,-1,57,59,-1,61,63,65,67,69,71,73,75,77,79,81,83,85,-1,-1,87,89,-1,-1,-1,91,93,95,97,99,101,103,-1,-1,105,-1,107,109,-1,-1,-1,-1,111,113,-1,115,-1,-1,-1,-1,-1,117,119,-1,-1,-1,121,-1,-1,-1,-1,123,-1,-1,-1,-1,125,127,129,-1,131,-1,133,135,-1,-1,-1,-1,-1,137,139,141,143,145,-1,147,-1,-1,149,-1,151,153,155,-1,-1,-1,-1,-1,157,159,161,-1,163,165,167,169,171,-1,-1,173,-1,-1,175,-1,-1,177,-1,-1,-1,-1,-1,-1,-1,-1,-1,-1,-1,-1,-1,-1,-1,-1,-1,-1,-1,-1,-1,-1,-1,-1,-1,-1,-1,-1,-1,-1],"loss_changes":[7.6609014E3,1.4906079E2,2.2834058E2,5.8032715E1,8.879443E1,1.615747E2,9.054297E1,1.923944E1,3.1243652E1,3.4507477E1,4.8372498E1,2.7664124E1,7.3586334E1,3.7838044E0,7.871777E1,0E0,2.800859E1,2.2476318E1,3.524463E1,2.1311935E1,4.8624716E0,1.8750122E1,0E0,1.1302597E1,0E0,5.2075134E1,5.426602E0,0E0,0E0,0E0,1.6619385E1,4.408951E0,1.5052048E1,5.097168E0,0E0,1.2657349E1,2.4396484E1,0E0,2.1448158E1,4.048186E0,3.8664384E0,1.3504272E1,6.007141E0,3.429123E0,3.008909E0,2.8214294E1,1.6041653E1,4.6215014E0,3.9308906E0,1.4261719E1,4.7943954E0,0E0,0E0,6.2096786E0,8.696564E0,0E0,0E0,0E0,5.0480347E0,1.4614525E1,5.9292603E0,7.619938E0,7.118657E0,3.1882672E0,4.7314057E0,0E0,0E0,1.4848511E1,0E0,9.871994E0,5.892174E0,0E0,0E0,0E0,0E0,1.6201447E1,1.644851E1,0E0,9.953583E0,0E0,0E0,0E0,0E0,0E0,1.9386963E1,4.4440155E0,0E0,0E0,0E0,7.302349E0,0E0,0E0,0E0,0E0,6.227524E0,0E0,0E0,0E0,0E0,1.0177921E1,6.425955E0,6.859483E0,0E0,5.027832E0,0E0,4.036278E0,6.008484E0,0E0,0E0,0E0,0E0,0E0,8.662613E0,4.3583975E0,1.4442284E1,4.422708E0,9.03191E0,0E0,7.3033867E0,0E0,0E0,4.7598367E0,0E0,7.588356E0,6.936495E0,6.713166E0,0E0,0E0,0E0,0E0,0E0,1.0595576E1,4.307212E0,3.2728348E0,0E0,4.379383E0,6.1952915E0,4.285965E0,3.808154E0,6.2689476E0,0E0,0E0,9.435822E0,0E0,0E0,6.0735245E0,0E0,0E0,5.9562035E0,0E0,0E0,0E0,0E0,0E0,0E0,0E0,0E0,0E0,0E0,0E0,0E0,0E0,0E0,0E0,0E0,0E0,0E0,0E0,0E0,0E0,0E0,0E0,0E0,0E0,0E0,0E0,0E0,0E0,0E0],"parents":[2147483647,0,0,1,1,2,2,3,3,4,4,5,5,6,6,7,7,8,8,9,9,10,10,11,11,12,12,13,13,14,14,16,16,17,17,18,18,19,19,20,20,21,21,23,23,25,25,26,26,30,30,31,31,32,32,33,33,35,35,36,36,38,38,39,39,40,40,41,41,42,42,43,43,44,44,45,45,46,46,47,47,48,48,49,49,50,50,53,53,54,54,58,58,59,59,60,60,61,61,62,62,63,63,64,64,67,67,69,69,70,70,75,75,76,76,78,78,84,84,85,85,89,89,94,94,99,99,100,100,101,101,103,103,105,105,106,106,112,112,113,113,114,114,115,115,116,116,118,118,121,121,123,123,124,124,125,125,131,131,132,132,133,133,135,135,136,136,137,137,138,138,139,139,142,142,145,145,148,148],"right_children":[2,4,6,8,10,12,14,16,18,20,22,24,26,28,30,-1,32,34,36,38,40,42,-1,44,-1,46,48,-1,-1,-1,50,52,54,56,-1,58,60,-1,62,64,66,68,70,72,74,76,78,80,82,84,86,-1,-1,88,90,-1,-1,-1,92,94,96,98,100,102,104,-1,-1,106,-1,108,110,-1,-1,-1,-1,112,114,-1,116,-1,-1,-1,-1,-1,118,120,-1,-1,-1,122,-1,-1,-1,-1,124,-1,-1,-1,-1,126,128,130,-1,132,-1,134,136,-1,-1,-1,-1,-1,138,140,142,144,146,-1,148,-1,-1,150,-1,152,154,156,-1,-1,-1,-1,-1,158,160,162,-1,164,166,168,170,172,-1,-1,174,-1,-1,176,-1,-1,178,-1,-1,-1,-1,-1,-1,-1,-1,-1,-1,-1,-1,-1,-1,-1,-1,-1,-1,-1,-1,-1,-1,-1,-1,-1,-1,-1,-1,-1,-1],"split_conditions":[1E0,5.626614E-1,5E0,2E0,3E0,3.529412E-1,-3.9011705E-1,1.6797692E-1,4.8336565E-1,5.1854103E1,4.347826E1,2E0,5.0122547E1,1E1,-4.0716657E-1,5.486936E-2,1.814892E-1,-3.3505752E0,4.4186428E-1,2.930585E-1,2.824729E1,1.716376E0,4.930928E-2,3.0637078E0,-5.4239623E-2,1.7912219E0,2.8872848E0,1.1151528E-2,-9.325184E-3,-0E0,3.0169888E0,9.8270124E-1,2.4615385E-1,6.170556E-1,-0E0,6.123017E-1,1.3327424E1,4.3029156E-2,1.1262529E-1,5.4441204E1,5.445303E-2,2.277599E0,-3.3505752E0,3.0250218E0,5.528284E1,1.4025664E0,-5.1808643E-1,4.1639237E0,1.5237895E2,4.2857143E-1,8.057663E1,8.927411E-3,5.8303703E-2,6.120937E1,1E0,1.5477081E-2,6.281306E-2,-0E0,-1.1115348E1,2.8787878E-1,8.8173485E0,1.801532E1,9.813543E-1,1.2003881E1,7.7011496E-1,-0E0,2.4755385E-2,4.7126436E-1,4.097067E-2,1E0,1.6790353E0,-4.1265454E-2,-1.4400837E-2,-1.7530024E-2,-0E0,5.2174107E1,2E0,8.95295E-3,2E0,-1.6728401E-2,3.4612156E-3,1.5820077E-2,-0E0,-5.9631415E-2,2.4971461E0,-1.26582575E1,-5.0927857E-3,3.711239E-2,-0E0,2.104962E1,-0E0,7.3021706E-3,6.1315365E-2,3.9434835E-2,1.0427829E0,4.5655612E-2,3.5868436E-3,5.887648E-3,4.9095735E-2,8.3908045E-1,5.7281555E1,3.2098046E-1,-0E0,8.3031225E-1,-6.9325077E-3,9.409005E-1,5.1273693E1,4.6778984E-2,2.395689E-3,-0E0,2.9214442E-2,-4.390146E-2,7.3333335E-1,2.839601E0,-2.7009508E-1,6.1807865E1,8.552632E-1,-5.0874826E-2,1.1262529E-1,-4.001178E-2,-0E0,1.798271E-1,2.8889414E-2,1.0331212E1,1.8500327E0,7.941176E-1,-1.7565245E-2,2.298126E-2,1.490624E-3,-0E0,-3.2253493E-2,5.795053E-1,1.4025664E0,4.3061115E1,-0E0,2.2950819E-1,8.9803815E-1,3.763785E-5,1.0752688E-1,5.3846154E-2,-0E0,-1.2083282E-3,-1.0380907E1,-9.333005E-3,5.9706294E-3,1E0,-0E0,-8.14269E-3,6E0,-0E0,1.5465799E-2,-1.4586451E-2,1.6329773E-2,2.9957816E-2,-0E0,2.1679588E-2,-1.7137035E-3,-2.4831811E-2,1.073307E-2,2.2922881E-2,-0E0,-0E0,3.2156322E-2,-1.3138148E-3,2.1572778E-2,1.6160856E-3,2.3835862E-2,-0E0,-3.534072E-2,-1.8072205E-2,-0E0,-0E0,-1.8424083E-2,-0E0,-3.5870742E-2,-2.6784288E-2,-0E0,-0E0,-4.614E-2],"split_indices":[12,6,12,13,13,6,17,17,17,9,10,12,11,12,16,0,16,2,16,17,11,16,0,16,0,16,17,0,0,0,16,17,6,16,0,17,11,0,16,9,4,17,2,17,10,17,17,16,11,6,10,0,0,9,14,0,0,0,0,6,17,11,16,0,7,0,0,7,0,7,17,0,0,0,0,9,12,0,12,0,0,0,0,0,17,0,0,0,0,11,0,0,0,0,16,0,0,0,0,7,10,17,0,16,0,6,9,0,0,0,0,0,6,17,16,10,6,0,16,0,0,5,0,0,17,6,0,0,0,0,0,17,17,9,0,4,17,5,4,5,0,0,0,0,0,7,0,0,12,0,0,0,0,0,0,0,0,0,0,0,0,0,0,0,0,0,0,0,0,0,0,0,0,0,0,0,0,0,0],"split_type":[0,0,0,0,0,0,0,0,0,0,0,0,0,0,0,0,0,0,0,0,0,0,0,0,0,0,0,0,0,0,0,0,0,0,0,0,0,0,0,0,0,0,0,0,0,0,0,0,0,0,0,0,0,0,0,0,0,0,0,0,0,0,0,0,0,0,0,0,0,0,0,0,0,0,0,0,0,0,0,0,0,0,0,0,0,0,0,0,0,0,0,0,0,0,0,0,0,0,0,0,0,0,0,0,0,0,0,0,0,0,0,0,0,0,0,0,0,0,0,0,0,0,0,0,0,0,0,0,0,0,0,0,0,0,0,0,0,0,0,0,0,0,0,0,0,0,0,0,0,0,0,0,0,0,0,0,0,0,0,0,0,0,0,0,0,0,0,0,0,0,0,0,0,0,0,0,0,0,0],"sum_hessian":[1.0638568E4,5.336458E3,5.302111E3,3.0578784E3,2.2785796E3,2.8179995E3,2.484111E3,6.5315845E2,2.40472E3,7.790725E2,1.4995071E3,8.6586304E2,1.9521366E3,6.755588E1,2.4165552E3,9.117415E1,5.619843E2,5.9049255E2,1.8142275E3,4.873189E2,2.917536E2,1.0143407E3,4.8516635E2,3.437737E2,5.220893E2,1.7697021E3,1.8243452E2,4.1435883E1,2.6119995E1,5.756374E1,2.3589915E3,9.572085E1,4.6626346E2,5.7525323E2,1.5239327E1,4.349011E2,1.3793264E3,1.1269968E2,3.7461923E2,2.4597879E2,4.577479E1,6.6287354E2,3.5146716E2,2.8542847E2,5.834525E1,1.2369974E3,5.327046E2,7.782783E1,1.046067E2,2.223571E3,1.3542036E2,1.639568E1,7.9325165E1,1.6777356E2,2.984899E2,1.913687E1,5.561164E2,1.319566E1,4.2170544E2,3.169548E2,1.0623716E3,8.269158E1,2.9192764E2,5.4441925E1,1.9153688E2,1.3500652E1,3.227414E1,5.4922986E2,1.13643684E2,2.7688577E2,7.45814E1,2.4376796E2,4.1660496E1,3.6324566E1,2.2020681E1,7.2567975E2,5.1131772E2,5.3394653E1,4.7930994E2,3.1905144E1,4.592268E1,9.018804E1,1.4418654E1,8.7798303E2,1.345588E3,1.042746E2,3.114577E1,1.543061E2,1.346745E1,2.2669708E2,7.179282E1,1.3539807E1,4.0816562E2,1.4795479E2,1.69E2,1.0437394E3,1.863225E1,2.5204992E1,5.748659E1,1.0787064E2,1.84057E2,3.546637E1,1.8975554E1,1.4761261E2,4.3924263E1,2.6697797E2,2.8225186E2,2.5490564E2,2.1980125E1,2.4805817E1,4.977558E1,4.0596466E2,3.197151E2,2.080841E2,3.032336E2,2.0685498E2,2.7245496E2,1.2316039E3,1.13984116E2,9.173668E1,1.2537924E1,1.2112093E2,1.0557615E2,6.0269997E1,1.0873E2,7.0657524E1,3.7213116E1,1.1368902E2,7.0368E1,1.2161084E1,2.3305286E1,8.077344E1,6.683917E1,2.4619972E2,2.077824E1,1.0853483E2,1.7371704E2,2.0407066E2,1.1564443E2,1.4851895E2,5.956515E1,5.143596E1,2.5179765E2,1.7484628E2,3.2008698E1,2.3798341E2,3.447156E1,5.7464035E1,5.6520077E1,4.5149384E1,7.597155E1,2.5026236E1,3.524376E1,7.639387E1,3.2336136E1,4.690968E1,2.3747847E1,2.2078953E1,5.8694485E1,5.4739143E1,1.210003E1,1.7416182E1,2.2878354E2,9.163775E1,1.6897083E1,6.419601E1,1.0952104E2,1.690929E1,1.8716138E2,8.1332924E1,3.43115E1,3.250701E1,1.1601195E2,2.7057112E1,2.2474054E2,2.1524571E2,2.2737694E1,1.2282785E1,4.4237293E1],"tree_param":{"num_deleted":"0","num_feature":"18","num_nodes":"179","size_leaf_vector":"1"}},{"base_weights":[1.9380194E-3,8.1814176E-1,-8.176636E-1,5.937439E-1,9.37998E-1,-6.16027E-1,-1.0447911E0,9.9495894E-1,5.0120413E-1,4.5420054E-1,1.026324E0,-6.6279835E-1,-0E0,-1.1217128E-1,-1.0845138E0,5.237204E-1,5.275318E-2,9.051819E-1,3.9305878E-1,-6.319944E-3,6.2512213E-1,8.2809263E-1,1.1770656E0,-4.471557E-1,-8.049958E-1,1.5022276E-1,-2.8922886E-1,-1.4185324E-2,1.5333449E-2,-0E0,-1.1121802E0,-0E0,3.502735E-2,-0E0,1.0028498E0,1.16643585E-1,5.146242E-1,3.3178285E-1,-2.9549968E-1,7.3923963E-1,3.6352316E-1,1.0180293E0,6.844045E-1,9.424383E-1,5.647808E-2,-5.0803626E-1,-2.81969E-2,-1.03809156E-1,-8.5847795E-1,-0E0,1.494527E-2,2.3193972E-3,-5.218115E-1,1.2666859E-2,-7.7738604E-3,3.231241E-3,-1.1309959E0,2.0877529E-2,-8.86416E-3,5.1169634E-2,5.056951E-1,3.1692252E-1,-0E0,3.8812912E-1,7.3527014E-1,-0E0,2.46936E-2,-5.2322304E-1,2.272522E-2,4.2863175E-1,4.2590152E-2,-0E0,2.061413E-2,6.783471E-1,5.0915238E-2,4.9652055E-1,8.82912E-1,-0E0,4.486913E-2,-6.235843E-1,-2.3843005E-1,1.290023E-1,-2.0783682E-1,-2.9750344E-1,4.007253E-3,-2.7805305E-1,-9.1904956E-1,-3.1782746E-2,-0E0,-1.1372564E0,-0E0,-0E0,3.0935062E-2,3.2649614E-2,2.7291317E-2,-5.3716473E-2,2.0395419E-2,2.4313505E-1,6.388249E-1,7.730057E-1,-0E0,-3.1632137E-2,-0E0,2.7348151E-2,2.4078102E-3,3.7292212E-2,-0E0,1.4111489E-1,6.157311E-1,6.402438E-1,1.0399016E0,-5.060382E-1,-3.8619E-2,-0E0,-3.6396945E-1,-4.942969E-3,1.6371425E-2,-0E0,-1.7150667E-2,-1.9271422E-2,-0E0,2.3219682E-1,-4.9616927E-1,-1.2422361E-2,-9.6554965E-1,-5.98081E-1,-1.1570477E0,-3.8753694E-3,1.2674603E-2,1.6012981E-3,-2.2534683E-1,8.3118185E-2,4.3186492E-1,-0E0,3.1617466E-2,-0E0,3.7237518E-2,-0E0,2.727637E-2,3.9869407E-1,3.630128E-2,-0E0,3.14271E-2,5.2224528E-2,1.1772102E-2,-2.507631E-1,-2.67097E-2,-1.4094877E-1,1.4734987E-2,-0E0,-4.9994755E-1,-8.41765E-3,1.8844297E-2,2.0449622E-2,-0E0,-5.77455E-1,-0E0,-8.3638877E-1,-1.1298186E0,-4.1916743E-2,5.417775E-3,-8.085334E-1,-1.1864023E0,-0E0,-1.7100893E-2,1.0006994E-2,-4.8714858E-3,2.2012271E-2,-0E0,2.1915587E-2,-0E0,-1.9862346E-2,1.0047623E-2,-1.6663907E-2,2.9469762E-4,-1.4236431E-2,7.530327E-3,-3.2478664E-2,-8.613915E-3,-0E0,-3.0346667E-2,-3.3013232E-2,-5.0835006E-2,-1.16028255E-2,-5.312096E-2,-4.2918395E-2,-1.6797228E-2,-3.856123E-2,-5.593699E-2],"categories":[],"categories_nodes":[],"categories_segments":[],"categories_sizes":[],"default_left":[0,0,0,0,0,0,0,0,0,0,0,0,0,0,0,0,0,0,0,0,0,0,0,0,0,0,0,0,0,0,0,0,0,0,0,0,0,0,0,0,0,0,0,0,0,0,0,0,0,0,0,0,0,0,0,0,0,0,0,0,0,0,0,0,0,0,0,0,0,0,0,0,0,0,0,0,0,0,0,0,0,0,0,0,0,0,0,0,0,0,0,0,0,0,0,0,0,0,0,0,0,0,0,0,0,0,0,0,0,0,0,0,0,0,0,0,0,0,0,0,0,0,0,0,0,0,0,0,0,0,0,0,0,0,0,0,0,0,0,0,0,0,0,0,0,0,0,0,0,0,0,0,0,0,0,0,0,0,0,0,0,0,0,0,0,0,0,0,0,0,0,0,0,0,0,0,0,0,0,0,0,0,0,0,0,0,0,0,0],"id":9,"left_children":[1,3,5,7,9,11,13,15,17,19,21,23,25,27,29,31,-1,33,35,37,39,41,43,45,47,49,51,-1,-1,53,55,57,-1,-1,59,61,63,65,67,69,71,73,75,77,-1,79,81,83,85,-1,-1,-1,87,-1,-1,-1,89,-1,-1,-1,91,93,95,97,99,-1,-1,101,-1,103,-1,-1,-1,105,-1,107,109,-1,-1,111,113,115,117,119,-1,121,123,-1,-1,125,-1,-1,-1,127,-1,129,-1,131,133,135,-1,-1,-1,-1,-1,-1,-1,137,139,141,143,145,-1,147,149,-1,-1,151,-1,-1,-1,153,155,-1,157,159,161,-1,-1,-1,163,165,167,-1,-1,-1,-1,-1,-1,169,-1,-1,-1,-1,-1,171,-1,173,-1,175,177,-1,-1,-1,-1,179,-1,181,183,-1,-1,185,187,-1,-1,-1,-1,-1,-1,-1,-1,-1,-1,-1,-1,-1,-1,-1,-1,-1,-1,-1,-1,-1,-1,-1,-1,-1,-1],"loss_changes":[7.057596E3,1.3364893E2,2.3151807E2,6.088684E1,1.3843677E2,7.853931E1,8.530713E1,1.4451263E1,5.9829254E1,4.5539032E1,7.4379395E1,7.3026245E1,9.552572E0,9.620626E0,7.3086426E1,9.711205E0,0E0,2.8486725E1,3.7935562E1,1.4053394E1,6.22464E0,2.4908752E1,5.260498E0,2.4375366E1,5.353723E1,2.923432E0,8.480396E0,0E0,0E0,3.127005E0,5.617163E1,4.003545E0,0E0,0E0,6.1063232E0,9.83283E0,1.7354584E1,6.394226E0,1.6261736E1,7.952606E0,3.22752E0,5.2823486E0,2.0269135E1,5.828766E0,0E0,2.3983368E1,4.565035E0,5.4423156E0,4.425659E1,0E0,0E0,0E0,3.484521E0,0E0,0E0,0E0,1.511084E1,0E0,0E0,0E0,5.260065E0,8.870379E0,4.831459E0,1.5519485E1,7.802902E0,0E0,0E0,5.6425133E0,0E0,4.026863E0,0E0,0E0,0E0,9.911003E0,0E0,1.3319183E1,3.6424866E0,0E0,0E0,8.359772E0,7.5983334E0,4.781192E0,3.9904227E0,3.5604086E0,0E0,1.7883293E1,3.2607666E1,0E0,0E0,1.4028076E1,0E0,0E0,0E0,3.3493576E0,0E0,4.2583475E0,0E0,8.560133E0,4.5720825E0,6.9084625E0,0E0,0E0,0E0,0E0,0E0,0E0,0E0,6.8384705E0,4.5255814E0,2.9682617E0,7.113098E0,3.7547455E0,0E0,4.6004314E0,8.0392475E0,0E0,0E0,3.2464437E0,0E0,0E0,0E0,3.0160995E0,5.558468E0,0E0,1.3699829E1,2.4857796E1,1.0237061E1,0E0,0E0,0E0,4.511333E0,5.990885E0,3.569027E0,0E0,0E0,0E0,0E0,0E0,0E0,4.543844E0,0E0,0E0,0E0,0E0,0E0,1.086031E1,0E0,4.3983226E0,0E0,3.2535243E0,3.7888718E0,0E0,0E0,0E0,0E0,4.204521E0,0E0,1.171875E1,2.9163818E0,0E0,0E0,3.423317E0,6.711426E0,0E0,0E0,0E0,0E0,0E0,0E0,0E0,0E0,0E0,0E0,0E0,0E0,0E0,0E0,0E0,0E0,0E0,0E0,0E0,0E0,0E0,0E0,0E0,0E0,0E0,0E0],"parents":[2147483647,0,0,1,1,2,2,3,3,4,4,5,5,6,6,7,7,8,8,9,9,10,10,11,11,12,12,13,13,14,14,15,15,17,17,18,18,19,19,20,20,21,21,22,22,23,23,24,24,25,25,26,26,29,29,30,30,31,31,34,34,35,35,36,36,37,37,38,38,39,39,40,40,